,0,1,2,3,4,5,6,7,8,9,10,11,12,13,14,15,16,17,18,19,20,21,22,23,24,25,26,27,28,29,30,31,32,33,34,35,36,37,38,39,40,41,42,43,44,45,46,47,48,49,50,51,52,53,54,55,56,57,58,59,60,61,62,63
dosha_pitta,0.054208882,-0.012309795,-0.13240959,-0.17691775,0.08544084,0.19347042,0.19137305,-0.06939507,0.071118765,0.07573127,0.20119502,-0.20107633,0.1021772,0.03302841,-0.1544391,0.09718037,0.12348527,-0.1448205,-0.2355899,0.04180282,-0.008478894,-0.0012846546,0.02590322,-0.09830423,-0.011427848,0.04580135,0.122562766,-0.013436006,-0.11247616,-0.0010468148,0.1138111,0.08111455,-0.08596806,0.15107791,-0.05998235,0.03750837,-0.027645433,-0.041217953,-0.1569646,0.069621466,-0.043784976,0.05874684,0.06391595,0.041448902,0.15330192,0.08629593,0.2912461,-0.026900202,0.25871947,-0.07351288,0.024821285,-0.22502147,-0.038820032,-0.12964776,-0.011962613,-0.028961603,0.008202443,-0.1392228,-0.09870503,0.26415625,-0.07610882,-0.17812021,-0.08752129,-0.020171305
dosha_vata,0.07809852,0.08969053,-0.11672801,-0.20136954,0.07378034,0.1877474,0.1759328,-0.086214565,0.0048879026,0.0679399,0.2360842,-0.17570098,0.04009057,0.060522225,-0.14763823,0.09609083,0.10651801,-0.17634536,-0.19837911,0.06700978,-0.0528678,0.013636998,0.009307983,-0.11277592,-0.0023897993,-0.0257378,0.081542596,0.020518031,-0.07838888,0.026660591,0.13093221,0.081177674,-0.07142633,0.15330522,-0.022649156,0.018039517,-0.022805432,-0.09588512,-0.14138539,0.065524794,-0.0025261631,0.042411633,0.046169765,0.055234253,0.10763721,0.111389495,0.2698865,-0.014555519,0.27857095,-0.006815144,0.07430027,-0.2018985,-0.038782578,-0.09878264,0.02954791,-0.038385823,0.03550225,-0.113304086,-0.12027003,0.31815895,-0.08888106,-0.1880787,-0.07510029,-0.028540052
dosha_kapha,0.079737365,0.09212973,-0.13365696,-0.15412447,0.11236264,0.22089317,0.1692595,-0.054029733,0.057108093,0.08740245,0.19717279,-0.16314012,0.10265005,0.043274127,-0.14805242,0.086932756,0.09334799,-0.23664933,-0.1854967,0.01312246,-0.042514004,0.033626102,-0.06590827,-0.12907824,0.052662067,0.044187106,0.025341863,-0.02672903,-0.14939542,0.004547878,0.07483873,0.08397961,0.00091270596,0.1362557,-0.051813502,-0.010839899,-0.030643202,-0.123846374,-0.14500052,0.07866415,-0.015681269,0.05988227,-0.018093074,0.034008324,0.12554342,0.111220725,0.30505624,-0.01134432,0.24094859,-0.024151051,0.06460973,-0.20343907,0.022298513,-0.050919645,-0.014040268,-0.032034524,0.06191722,-0.1662379,-0.12520605,0.31298074,-0.11658257,-0.1446246,-0.046221677,0.060554378
guna_laghu,0.12623356,-0.16837054,0.000562125,-0.07294344,0.20688148,0.14725503,0.13400896,0.042787172,0.1511504,0.22567628,0.22549617,-0.29724774,0.25623187,0.06845071,-0.057782143,0.14052905,0.07824462,-0.07620151,-0.27454096,-0.018667143,-0.090541326,0.18781994,-0.1543531,-0.07485054,-0.028214445,-0.008918759,0.154155,0.067502245,0.0009793187,0.09032186,-0.039713085,0.035853047,-0.053616278,0.15043004,-0.087297425,0.067736216,-0.013851975,-0.06877727,-0.16990945,-0.16692801,0.0433262,0.049917158,-0.06960139,0.0825204,0.07412393,0.17202726,0.12967628,-0.064091906,0.42115596,0.1741451,0.15420485,-0.17841066,-0.020248039,-0.05332811,0.070718445,-0.2277234,0.018519353,-0.17248838,0.098811686,0.38489074,-0.1172633,-0.13227998,-0.051358074,-0.119063444
vipaka_katu,0.1259232,-0.023260832,-0.067396805,-0.123297475,-0.036068417,0.20485024,0.20166537,-0.19467449,0.080704376,0.16049376,0.190575,-0.22228834,0.30444357,-0.076888055,-0.06882517,0.3044874,0.0508763,-0.08838825,-0.2929906,0.038831633,-0.12611632,-0.0022954675,-0.24031958,-0.28537518,-0.15638635,0.08869262,-0.061559644,-0.08016133,-0.0477026,-0.14094774,0.13776769,0.064079225,-0.017549483,0.21255249,0.010195339,0.1096939,-0.0074672215,-0.108193286,0.019186981,0.12560873,0.0015603945,-0.0161319,-0.10631951,0.27460548,0.016637277,0.2136688,0.12997158,-0.068704784,0.20541717,-0.08610355,0.24840711,-0.018969623,-0.118697524,-0.03838796,0.013328072,-0.12681523,-0.060188163,-0.2143313,-0.12858601,0.19533053,-0.06798688,-0.15106705,0.040620416,-0.1354539
virya_ushna,0.1339349,0.038763087,0.07437135,-0.10870375,0.12802607,0.2013161,0.055239525,-0.2891737,0.018197281,0.053992365,0.4077826,-0.16921458,0.059930533,0.16324456,-0.01720278,0.06051785,0.17667048,-0.20769803,-0.46164897,-0.027638935,0.28604913,0.035539493,0.037301455,-0.10130364,0.06672912,0.08619866,0.043963857,-0.23253828,-0.07219875,-0.21357808,0.0032180697,0.0005785587,-0.17013703,0.09494904,-0.0059041707,0.23397647,-0.02360662,-0.029311458,-0.044953603,0.27762476,0.046666283,0.0936523,-0.036248997,0.041592967,0.15918864,0.17397596,0.1842706,0.051205486,-0.109834835,-0.046232108,-0.12843701,-0.10623512,-0.22819243,0.021177575,0.18077862,-0.062056437,-0.17931908,-0.18025528,-0.17824374,0.41589716,-0.2406806,0.016355107,0.059676066,-0.19063246
rasa_tikta,0.09279809,-0.0773144,-0.116194054,-0.1646445,0.10538501,0.21877858,0.23100072,-0.10404471,-0.035374735,0.13338329,0.2510616,-0.25661469,0.29760608,0.055893395,-0.027579883,0.23255159,0.045917574,-0.0019557218,-0.43635777,0.018332154,-0.02606581,-0.061858606,-0.21357895,-0.06011442,0.028922876,-0.08087057,-0.12961462,-0.074695975,-0.15264565,0.06460849,0.08963053,0.05801135,0.06575393,0.09215266,0.14570925,0.1827518,0.04843179,-0.060552794,-0.30315292,-0.08739283,0.08370526,-0.0996365,0.15428598,0.27868626,0.07545075,0.22446758,0.0803044,-0.22101627,0.051940072,0.028936762,0.19367811,-0.093663126,-0.254805,-0.16208303,-0.06344476,-0.13470641,0.06428651,-0.22299561,0.0736752,0.4185784,0.024165168,-0.33545566,-0.15567316,0.059114393
virya_sheeta,-0.046431657,0.06562029,-0.33420813,-0.20411448,0.058709323,0.15652007,0.37919253,0.3080331,0.07048773,0.09471293,-0.02420243,-0.31708485,0.045995116,-0.014896338,-0.19635037,0.033707403,-0.07431532,-0.15309982,0.17709944,0.13935168,-0.32379377,-0.031979613,0.0027847874,-0.09254728,-0.08743224,-0.10600216,0.047242854,0.17090447,-0.13988434,0.22647102,0.27942792,0.107645564,0.082654655,0.11782174,0.07261245,-0.19949512,-0.08260408,-0.117731445,-0.31570235,-0.12968335,-0.10703188,-0.012030528,0.10970831,0.03355019,0.06509777,-0.07382589,0.404906,-0.065133445,0.66567606,0.052176654,0.22322454,-0.28463757,0.12687704,-0.20485282,-0.16370039,-0.010619756,0.17376684,-0.19363387,-0.061391868,0.14611278,0.110592395,-0.46037543,-0.09316112,0.21952051
vipaka_madhura,-0.038904306,-0.0040804837,-0.30298382,-0.167914,0.26404434,0.22983731,0.35889718,0.1935464,-0.21330331,-0.07657354,0.25558993,-0.21253583,-0.20961249,0.22424583,-0.36843497,-0.18687041,0.09986748,-0.1594991,0.07660158,0.15825802,0.11806848,0.052266374,0.27677542,0.12017712,0.23170494,-0.1417268,0.29904553,-0.016920578,-0.07644321,0.22376245,0.10911648,-0.10593423,-0.22179626,-0.036932696,-0.060433675,-0.02179556,-0.10676718,-0.11905931,-0.23757102,-0.04359663,-0.12190852,0.111581534,0.2000255,-0.23051079,0.38108146,-0.065084875,0.48532236,0.09643693,0.26206458,0.17119241,-0.20707542,-0.4198158,-0.006497168,-0.15925932,-0.0039651655,0.03203479,0.16606528,-0.09617465,0.14018913,0.39370084,-0.17053299,-0.17870304,-0.12327562,0.1347759
rasa_madhura,-0.1465154,0.0891449,-0.3110718,-0.06856128,0.1985658,0.18407674,0.32355967,-0.01012363,-0.18846771,-0.14338002,0.11020972,-0.27325645,-0.12780873,0.0670736,-0.3103736,-0.036409557,0.27265042,-0.17219715,0.15538232,0.2575893,-0.06317377,-0.017337749,0.34143573,0.17919493,0.339983,0.055454023,0.30803803,-0.02310813,-0.07367958,0.15145454,0.23933473,-0.06533706,-0.078587316,-0.026690017,-0.06039295,-0.06581038,-0.24412961,-0.06662239,-0.24121293,0.07882051,-0.24505791,0.1840873,0.16834788,-0.21035944,0.25256988,-0.09140592,0.49222365,0.07298817,0.2759032,0.049803067,-0.18197665,-0.47622746,0.030536704,-0.06315521,0.059513308,0.12361089,0.06674933,-0.08761192,-0.09918028,0.43178743,-0.23911376,-0.265939,-0.084052704,0.14042866
guna_snigdha,-0.17473833,0.13194686,-0.39575127,-0.20322132,0.06482735,0.22253503,0.2372561,0.07925011,-0.15220799,-0.34755152,0.25348547,-0.1675042,-0.2571761,0.3065081,-0.36448598,-0.10168035,0.046815563,-0.52544314,-0.15932937,0.21824145,0.07047553,-0.18143576,0.4335394,-0.14989081,0.036113303,-0.23568021,0.11189749,-0.049190916,-0.15581535,-0.07048473,0.31598997,0.19741133,0.051240176,0.068403244,-0.05959156,0.12018882,0.096349925,0.09503255,-0.058158565,0.06150723,0.041032143,0.01025527,0.18157513,0.09511064,0.22043926,-0.14499664,0.6132551,0.014606249,0.016347455,0.055244613,-0.21840109,-0.32576331,-0.048257448,-0.09018824,0.06680827,0.18622775,0.18304978,-0.07714429,-0.14836594,0.24784066,-0.059001148,-0.27417472,0.12748577,0.42662188
rasa_kashaya,0.077531755,0.121548176,-0.3891264,-0.0124956975,0.41732928,0.067881905,0.3661619,0.19929099,0.18130276,0.18159829,-0.0844331,-0.24547563,0.38147825,0.1964621,-0.20444036,0.13197859,-0.12659547,0.20423168,0.15173544,0.07715289,-0.2735906,-0.0824056,0.2970608,-0.29251948,-0.13558906,0.19231299,0.17666893,-0.08423613,-0.22001669,-0.04779739,0.11559417,-0.069144025,-0.022705827,0.45778316,-0.08769766,-0.36458558,-0.06256282,-0.18388566,-0.07645896,-0.09246882,0.21700256,-0.26123565,-0.34205157,0.30432022,0.18343814,0.0926226,0.26911357,0.08259409,0.4934755,-0.16279873,-0.024239691,0.08907727,-0.09079242,0.026989486,0.111548096,-0.20060353,-0.16919696,-0.23646124,-0.38131744,0.25799793,0.14159021,-0.35189888,-0.02090259,0.07099214
rasa_katu,0.16347906,-0.22947013,-0.02517165,-0.28658152,-0.22922212,0.19242434,0.1951309,-0.34575582,-0.031176303,0.08915753,0.3088151,-0.0009491237,0.029034877,-0.09551605,-0.09767921,0.21405579,0.38599765,-0.15173112,-0.48003334,0.13314654,0.17009698,-0.004382174,-0.19983466,0.031077543,-0.14087509,0.26848063,-0.16555247,0.03672538,0.0044047413,-0.20276551,-0.030221622,0.20575286,-0.29730392,-0.060763776,-0.026257737,0.30163798,0.29974878,-0.021577276,0.12826008,0.2736197,-0.19216797,0.2155263,-0.022328306,-0.1622286,0.114022955,0.19019316,0.21106122,-0.14785685,0.011668598,0.24241233,-0.08097917,-0.20191653,-0.1489639,-0.0040083732,0.1077888,-0.011462763,-0.15168644,-0.16544153,0.02968071,0.4068689,-0.31513378,0.18021591,0.08361385,-0.19420841
guna_ruksha,0.3162861,0.15648036,-0.11727093,-0.0776233,-0.037637036,0.02031897,0.23072194,-0.04336592,0.28520754,0.30015483,0.22247724,-0.32318524,0.21750747,-0.357929,0.016949013,0.11080168,0.03774702,0.061517056,-0.023136426,0.09155538,-0.08462695,0.30297968,-0.13633372,-0.0026244281,0.25775874,0.3233791,-0.23167484,-0.0055868085,-0.008565338,0.24703436,0.19634712,-0.2315616,-0.17203866,0.0554316,0.027686687,-0.18134207,0.1268585,-0.2949822,-0.21748735,0.10156394,0.08414156,0.23647186,-0.14815843,0.124400616,-0.29276532,0.15105096,0.23058869,0.11834206,0.549741,-0.047558807,0.16005753,0.49065843,-0.061265387,-0.06810425,0.06770778,-0.27910173,-0.22021733,-0.45982683,-0.41262388,0.3264243,-0.22913253,-0.19789872,-0.018695224,-0.15983368
guna_guru,-0.17858541,0.41643143,-0.30551815,-0.25407138,-0.03121041,0.1015594,0.2754387,-0.15439674,-0.120930366,-0.14644887,0.15751103,-0.22911099,-0.16876155,0.22150533,-0.3324327,-0.10265497,0.07560311,-0.23490661,-0.059111834,0.09931285,0.1962135,-0.17519005,0.34302104,-0.24934164,0.09871544,0.24446775,-0.050020587,-0.1495266,-0.19993694,-0.2749439,0.53518933,0.23204502,-0.29582047,0.14977205,0.2220519,-0.050569627,-0.13313161,-0.18999557,-0.22076422,0.59295595,-0.20337436,0.11663776,0.15160745,-0.1773499,0.31428504,-0.04803716,0.5269705,0.37828577,-0.14572594,-0.44341505,-0.10830885,-0.27918336,-0.116127074,0.0072104703,-0.24085769,0.25871643,-0.039651435,0.003881555,-0.4374301,0.036082603,-0.07699914,-0.40970907,-0.27262414,0.10732079
guna_tikshna,0.1021358,-0.12177955,0.09388571,-0.34634602,-0.14586368,0.18599546,0.15684658,-0.19197494,-0.13467878,0.16960533,0.27459922,0.18494245,0.080774635,0.13305359,0.004250253,0.3227486,0.14129455,-0.44211233,-0.468681,-0.016168462,0.18290487,-0.06651062,-0.22669612,-0.41162428,-0.19687364,0.11738328,0.37333983,-0.11304887,-0.21134791,-0.49422663,-0.27568236,0.19517209,-0.029934652,-0.120623544,-0.34708196,0.2646076,-0.010271449,0.2524606,0.39316323,0.1987102,0.06356847,-0.056168385,-0.0644332,-0.13891183,0.17491475,0.253282,-0.033984333,-0.24505179,0.13223435,0.07824491,-0.06045264,-0.67291665,0.11849855,-0.15594138,0.03271332,0.16215551,0.25759003,-0.045649204,-0.026139878,0.16394012,-0.0067922766,-0.07042989,0.12751119,-0.26433793
prabhav_deepana,-0.072804466,-0.20110486,-0.0024003976,0.355024,0.27294388,0.23669448,0.1025218,0.011335185,0.10226788,0.32411352,0.78294265,0.12169294,0.068691045,0.009532419,-0.25372973,0.14360754,0.04942495,-0.3700583,-0.31051666,-0.3673158,0.19526474,0.0076540434,0.33899665,0.15175965,-0.27219298,0.14129658,0.202889,0.03618079,0.32843667,-0.106647894,-0.29092336,0.23692597,-0.25485227,-0.3056511,-0.08988509,0.09163338,-0.06407336,-0.27812722,0.24497816,0.12829141,-0.084887095,0.13353483,-0.19309127,-0.046553873,0.07656407,0.059950866,0.27076533,0.24477653,0.7226219,0.21196279,-0.2937257,0.09969965,0.14176215,-0.14941767,0.20608762,0.11758133,0.00858507,-0.11300861,0.06625823,0.4481342,0.008528367,0.13129412,-0.0071221027,-0.086396985
prabhav_balya,-0.12489187,0.61829877,-0.34929827,0.0432291,0.18974014,0.32132405,-0.45763355,-0.05186843,-0.03408161,-0.10529965,0.48612976,-0.40239817,-0.3749168,0.4855779,-0.20735233,-0.31101263,0.19328934,0.21688685,0.12909345,0.09767401,0.26098087,0.2027997,0.3630574,-0.32292548,0.06448261,0.09527478,0.10717643,0.38660276,-0.19193317,-0.06214115,0.29065454,-0.1418379,-0.25894657,-0.44356948,0.37023604,0.031113945,-0.30192164,-0.24863724,-0.016015638,0.1339953,0.053662162,0.11812701,0.31479472,0.23001587,0.23961474,0.05890921,0.9148052,0.21237394,0.15847458,0.015372509,-0.16645712,-0.34032947,-0.27741417,-0.031167064,-0.06697193,0.010158779,-0.22025219,-0.27280983,0.07773528,0.29193372,-0.22440498,-0.41146573,0.16483071,0.005987672
prabhav_kushtaghna,0.30734777,0.08968913,-0.6639326,0.02092732,-0.072758116,-0.19626501,0.3120748,-0.19116907,0.12337837,-0.06081492,0.30143136,-0.22937778,-0.3528875,0.3065151,0.33673754,0.25569075,0.03164476,-0.34338215,-0.17069693,0.33638713,0.2585731,-0.07483159,0.15730992,-0.37020308,-0.18966016,-0.028656553,-0.24300234,0.041377984,-0.31281212,0.2045067,0.071723774,-0.15120392,0.35059145,0.13314547,-0.12810285,-0.31647152,0.36013424,0.18257333,-0.06458516,-0.10638222,-0.32597205,-0.18149988,-0.1359327,-0.06316644,-0.3204601,0.38078558,-0.07411387,-0.73579824,0.21198362,-0.4477848,0.5424268,-0.1744266,-0.4481855,0.14051412,-0.28098935,-0.008996981,0.345257,-0.3828663,-0.28532058,0.120626315,-0.38726094,-0.41424775,0.060956508,-0.12133881
prabhav_rasayan,0.13450143,-0.31437728,-0.29901844,-0.13364267,0.4131682,-0.3742364,0.5629235,0.41296276,0.37275156,-0.28823775,0.35666704,-0.17479973,-0.33154678,0.105281755,-0.48235184,-0.19773678,0.1279369,-0.19966464,0.047669433,-0.1746052,0.6154778,0.0060465937,0.12623268,0.5275775,-0.11625975,-0.29229045,-0.0077543473,-0.36647415,0.047955822,-0.45062643,0.5609334,-0.040522248,-0.20864648,0.147485,-0.06265674,-0.16787148,-0.020396685,-0.084245384,-0.23582485,-0.18753758,0.086746395,0.24919255,0.77589285,0.07982078,-0.032483175,-0.18218353,0.57015723,0.23417532,-0.21884236,-0.13947386,-0.0117896665,-0.16039069,-0.09729796,-0.009447256,-0.15265343,-0.11004196,0.35852918,-0.6653677,-0.14685985,0.48616335,-0.18474469,-0.094284795,-0.24542663,0.0930809
prabhav_vatahara,-0.5720232,0.013535631,-0.16016969,-0.1697868,-0.076585576,0.44343928,0.2716,-0.5008708,-0.03521815,-0.3511102,0.23407403,-0.16398688,-0.17393163,0.006578319,-0.13914385,0.15718172,0.1805186,0.099989094,-0.21225907,0.3253254,0.088354714,0.018879008,0.60250443,-0.21173471,0.20335086,-0.22552073,0.16660866,-0.7868091,0.1707816,0.006853244,0.14625195,0.250499,0.08143707,-0.03677089,0.43824583,0.025030158,-0.28698832,0.054312427,-0.056953095,0.34629464,0.14631006,0.49214092,0.55462414,0.3473124,0.60031277,0.44495282,-0.05953373,-0.21847892,-0.07632907,0.35216162,0.05649032,-0.113669254,0.06853352,-0.07277672,0.7212912,-0.50522697,-0.19406204,0.013357264,-0.11322049,0.04343063,-0.09771547,-0.5733409,-0.18569529,-0.3539728
prabhav_grahi,-0.09324848,0.06840662,-0.54189897,0.048737716,0.12172939,-0.20139126,0.16168773,-0.12099535,-0.0019217825,0.19911239,0.32861772,0.52482146,0.6962859,0.22150019,-0.0781901,0.09680128,-0.5959177,0.2399659,0.12830259,0.6276063,0.08046003,0.25695017,-0.029550817,-0.29912615,0.34786627,0.22471511,-0.24796022,-0.5677354,-0.05678199,0.27464992,-0.012429707,0.0956012,0.04678556,0.44131267,0.016731486,-0.4380542,-0.20275731,-0.17829478,0.17767696,0.20432939,0.45720738,0.1105773,0.0038819532,-0.1426355,0.029997054,-0.2242553,0.50609213,0.48417577,0.64672184,0.12429565,0.4103236,-0.047205344,0.06199839,-0.1279758,0.3713143,0.47333586,0.27915674,-0.10613948,-0.108089864,0.26708457,-0.094549194,-0.1523591,-0.19614846,0.010797347
prabhav_jwaraghna,-0.0582938,-0.31675562,0.096446924,-0.20688844,-0.3739787,-0.0025909885,0.028163904,0.4295967,0.3107949,0.23097111,0.61416394,-0.8864206,0.41566068,-0.2753682,-0.11194159,-0.27886912,-0.4668455,-0.024373617,-0.0058113327,0.29757917,0.26342672,-0.30469835,-0.5067344,-0.121281065,-0.03279023,-0.3560974,-0.12187403,-0.14464082,-0.2337039,-0.3455991,-0.2598377,0.10576078,0.41870546,0.30415365,-0.09669968,0.102292284,-0.04056143,-0.20864801,-0.27344283,-0.0518569,0.04011048,0.3466167,0.4010118,0.31587967,0.14440317,-0.07705185,0.088437736,-0.15549667,0.36378235,0.012230173,-0.7001235,-0.3374012,-0.3997929,-0.5334889,-0.3171924,0.037462145,0.27797088,-0.19215646,0.30573657,-0.07441349,0.043738686,-0.47712058,-0.0066792336,0.19243832
prabhav_vrishya,-0.038776226,0.074602365,-0.26094347,-0.4931628,0.5574539,-0.111282445,0.36464533,0.30005395,-0.24866338,-0.23303324,0.18401282,-0.36790884,-0.043623596,0.29953268,-0.025206713,0.06293581,0.44854125,-0.25492817,0.0011568636,-0.13424113,0.26158586,0.339386,-0.1968361,-0.5086123,0.3509274,0.10281102,-0.07393258,0.1406623,-0.47733948,-0.26757956,0.6145945,-0.1388442,0.13918129,0.076434,0.1211407,0.007219485,-0.2875779,0.10866382,-0.21593471,0.17680217,-0.40752146,0.30536777,0.42407268,-0.22136639,-0.5540142,0.03950893,0.6877274,0.17039889,0.21088499,0.6006446,-0.47771454,-0.3256749,-0.13835299,-0.26184484,-0.0069302423,0.079564214,-0.24110577,-0.42886466,-0.09867424,-0.19812998,-0.24151808,0.33642557,-0.41210493,0.28309172
prabhav_kasahara,0.15030588,0.009539094,0.12179824,0.22275117,0.5669258,-0.019048722,-0.39717695,0.064471275,0.25563574,-0.10460633,-0.004873084,-0.61354285,-0.104549006,-0.31710047,-0.48788053,0.1686005,0.12945242,-0.023121096,0.2272553,0.5219705,-0.31674722,-0.46208015,-0.08734447,-0.029609863,-0.26718494,0.17390245,-0.15861039,0.2260397,-0.34396836,-0.36995545,-0.14996779,0.30006358,-0.12141301,-0.097791605,0.4778316,0.1966254,0.25793052,-0.46011272,0.24471465,-0.0020030004,-0.06303927,-0.09917999,-0.28294912,-0.005183073,0.2754462,0.06493058,0.08657402,-0.115517534,-0.0056425724,0.30178767,-0.24402057,-0.5138325,0.30198097,0.110166125,-0.28615776,0.076927006,0.08899635,-0.47188503,-0.53841925,0.92379117,-0.05234081,0.18929537,-0.5316094,-0.15860336
prabhav_shothahara,-0.22981995,0.1205408,0.21806842,-0.52887946,-0.078875765,0.29156104,-0.13611263,0.2331574,0.5569047,0.055224303,-0.2179983,-0.27231395,-0.24034385,0.3934441,-0.082704745,0.53673255,-0.23825148,-0.28614107,0.15900727,0.00428421,0.25311184,0.23137268,-0.6776522,-0.08257069,0.21552761,0.28066292,-0.023034813,-0.570041,-0.025481137,0.016727408,0.46330255,0.2534857,-0.29822603,-0.37073112,-0.27508527,0.06113692,0.17573205,0.07536212,-0.6009959,-0.25930265,0.28373644,-0.647649,-0.10723199,0.25242597,0.40813717,0.5154407,0.29162034,0.19335157,-0.1799365,0.3141854,0.25863975,-0.36014682,0.019150324,-0.1541174,0.58968174,0.18003283,-0.4591911,-0.44804463,-0.11853474,0.21149233,-0.02953957,-0.083517455,0.32663545,0.13835175
prabhav_hridaya,-0.41672418,0.39062205,-0.1568705,0.23461288,0.26093554,-0.12782133,0.65696037,0.1707119,-0.10207844,-0.5200572,0.46910733,-0.5817669,-0.12514791,-0.55022997,-0.06566955,-0.21977174,0.28783265,-0.04230262,-0.29425114,-0.5223729,-0.1061567,0.079529904,-0.37089646,0.11342162,-0.63270444,-0.04638688,0.30462068,0.03133122,-0.33968636,0.37110308,0.21789095,-0.1792956,-0.28023413,0.05122383,-0.26213056,0.08003004,-0.41710067,0.19708782,0.38830358,-0.27918673,-0.040347446,-0.28154472,0.03633654,-0.1138437,-0.0024930788,-0.31939995,0.48685238,0.017019983,0.2291829,0.15929766,0.3470627,-0.60398215,0.3537142,0.14592321,0.5328908,0.14652172,0.1808221,-0.18117426,-0.38902336,-0.012236605,-0.7997896,-0.22081858,0.029270846,-0.15851742
prabhav_pachana,-0.022020249,0.068747304,0.29541537,0.12686808,0.17126217,0.1927351,-0.09279058,0.21897368,0.07159734,0.34015572,0.17243536,0.22374801,0.54798573,0.008737873,0.18003613,0.04627088,0.12832889,-0.69351697,-0.22805867,0.115933746,0.6918766,0.18649212,0.26044428,-0.31141764,-0.40605867,0.08026315,0.00016621246,0.080236904,-0.20798796,0.12090412,0.029299961,0.4614611,-0.6593543,-0.31423873,-0.15349415,0.20195986,-0.02198425,-0.081628375,0.38604665,-0.06634089,-0.15522392,-0.04039053,0.04618284,-0.14392808,0.22721665,0.19104691,0.39383945,0.41336134,0.702863,0.23343375,-0.08968267,0.26656032,-0.3213286,0.10197133,-0.0011454249,-0.030424634,0.33949322,-0.11858604,0.6332641,0.10339156,-0.2462289,-0.03964106,-0.16435651,0.37448388
prabhav_krimighna,0.6172208,-0.064801365,0.43194547,0.35221067,-0.40353248,-0.037024364,0.445262,-0.25037423,0.16307864,-0.06872187,0.29677972,0.22714849,-0.2894909,0.15521409,0.24113873,0.037808735,0.07966822,0.25413662,-0.3275401,0.16015625,-0.21266963,0.2145714,0.11112154,-0.08002009,0.14688607,0.26877582,0.009601779,-0.21323432,0.5278692,-0.37320572,-0.20299882,-0.025131391,-0.071356036,0.58598566,-0.16420041,0.3310646,0.26018193,-0.57958627,-0.10575195,0.12102174,0.014052654,-0.27749473,0.3046422,-0.19314465,0.2756,0.36399722,0.55884576,-0.42961058,0.03685354,-0.0054170815,0.1798109,-0.24302131,-0.03990649,0.08618561,-0.08848028,0.060479052,0.47679764,-0.57864875,-0.1790421,0.15089723,0.16127987,-0.31421986,0.21084347,0.83256525
prabhav_medhya,-0.23458494,0.12776735,-0.25038385,-0.30336553,0.4760928,0.3554631,0.4295943,0.9270986,-0.22921294,0.2012665,0.3071956,-0.50865465,0.24847612,0.71150506,0.20558901,-0.24943174,0.58685666,-0.20591737,-0.19786596,-0.07607072,-0.18532583,0.20189294,-0.3758751,0.13355124,-0.009457478,-0.0897838,-0.44713366,-0.1508172,0.28092477,-0.3662884,0.40801537,0.07409258,0.15043543,-0.35750544,0.0536521,-0.087911,-0.02237637,0.2018144,-0.010441494,-0.31137925,0.088091485,0.06319151,0.005514689,-0.023255639,0.7307413,0.248536,0.53783625,0.13101576,-0.4529134,-0.00016852439,0.019391084,0.12158391,0.12586959,-0.0051738345,0.070792936,-0.16809481,0.7739872,0.049041744,-0.32847422,0.41785148,0.017494613,-0.36337298,-0.23669012,0.013418278
prabhav_mutrala,-0.2661517,-0.059767894,-0.34607032,-0.4021064,0.20014496,0.40013555,0.058579803,-0.1610053,0.22015677,0.40438148,0.04433444,-0.35210767,0.21887374,0.10414733,-0.5756685,0.22994027,0.06540026,-0.15106848,-0.26874265,-0.20193332,-0.25808403,0.72856045,0.43995988,0.43459097,0.23271205,-0.021934956,0.23380935,-0.014444289,0.27014592,0.14257298,0.46021467,-0.07122666,-0.26458246,-0.18292676,0.06744127,0.43169147,-0.5406279,-0.38500053,-0.20784022,-0.22497322,-0.06843988,-0.4564914,0.11713274,-0.57235336,-0.3344573,0.22274277,-0.19942543,-0.770344,0.27303743,0.49765423,-0.2180171,-0.24458738,-0.09674753,0.06884052,-0.462743,0.18223964,-0.104961365,-0.23133738,-0.37264934,-0.13939694,-0.13453537,-0.48102546,0.3164318,0.4350015
prabhav_lekhana,-0.38535827,-0.29977146,-0.039154172,0.24249533,0.18919371,0.11437151,0.1680938,0.1032122,0.061357588,0.24309437,-0.44923973,-0.18928452,-0.21782444,-0.01226224,-0.09498529,0.34803307,0.6185066,-0.4295174,-0.29033908,0.24613926,-0.16963252,0.53276855,0.0677883,-0.2547254,0.21548866,0.19638665,-0.06890142,-0.045846045,0.049815513,-0.6956648,-0.11152028,-0.12906174,-0.18424842,0.1813159,-0.7839718,0.22092007,-0.27246028,0.0058394107,-0.43017295,0.46968663,0.431888,0.07176301,-0.2649776,0.10242286,-0.12634334,-0.7449605,0.116163,0.276519,0.22087443,-0.3488255,-0.22941838,0.0496118,-0.30263847,0.3675475,0.1275829,-0.13459426,-0.073742315,-0.44515616,-0.5431968,0.30180547,-0.12967196,-0.20681721,0.14311644,-0.24833319
rasa_amla,0.01169204,-0.47390723,-0.24836572,-0.16245122,0.5731419,-0.17161018,-0.07245173,0.358182,0.14073202,-0.11176683,0.5495495,-0.36004135,-0.46160904,0.25879592,0.18505041,-0.47368914,-0.46784484,-0.1311298,-0.15132019,-0.25875428,0.59480935,0.5388377,0.42329186,-0.18569101,-0.060527865,0.20404497,0.50946015,0.106692374,0.18687195,0.32750276,-0.19912058,0.73370963,-0.22018126,0.19959848,-0.25623727,-0.034321766,-0.11185334,-0.18681319,-0.24731128,-0.054621592,-0.015595746,0.3758878,-0.10575547,-0.10529682,0.09334955,0.26125288,0.3572732,0.1583352,0.40441534,-0.39932212,-0.049240816,-0.14813834,0.25135097,0.5503168,0.04053734,0.2503577,0.051450625,0.23110737,-0.5268667,0.42826393,0.09358102,-0.11100705,0.1898591,-0.27511516
prabhav_shoolaghna,0.28308693,-0.07451783,-0.33974788,-0.086493984,-0.1969428,-0.27851412,0.2857453,-0.31009433,-0.14940403,-0.7382394,-0.17104201,-0.4135982,-0.023753406,0.2191095,-0.22799136,0.40355808,0.19835608,0.094495684,-0.42968002,-0.17923361,0.08415827,0.2664935,-0.06201948,-0.16058479,-0.113106385,-0.041402157,0.342979,-0.12100991,-0.14335364,-0.13607533,0.06386615,0.27320632,-0.71288615,0.13692228,0.1150702,0.2532999,0.022477293,0.09787278,0.6780344,0.041508395,0.06916465,0.38212526,0.24976616,-0.030537836,0.613054,-0.18801193,-0.16114509,-0.02685579,0.33634135,0.4810624,-0.19555204,0.36882573,-0.22700173,-0.71758914,0.23261176,-0.04315932,-0.023679838,-0.0041627376,-0.061735515,0.39699167,0.4478434,-0.77273583,-0.18928652,-0.06888448
prabhav_virechana,0.28755096,-0.35037962,-0.19243628,-0.5227841,-0.08218894,-0.2643652,0.5430403,-0.26785806,-0.57322514,0.43176728,0.3348305,-0.77110726,0.20380633,0.23383334,0.26575598,0.031763718,-0.1838607,-0.057333793,-0.4266905,0.32182336,-0.19160166,0.046623647,0.22335924,0.072882906,0.048937086,0.105615295,0.5143399,-0.17668478,0.161223,-0.13894188,-0.024812898,0.030203873,0.35295662,-0.61673915,-0.32895592,-0.1872644,0.1449767,0.46411777,0.2009393,0.24929532,-0.4463836,0.27211797,0.5236658,-0.24763271,-0.20821153,0.050141968,-0.16020665,0.6814218,-0.079346925,-0.18018226,0.39123386,-0.39254928,0.11116422,0.06531298,0.10991243,0.3229844,-0.14141202,-0.17613323,-0.36952543,0.5593447,-0.039367292,0.18884873,-0.2139125,0.33061597
prabhav_raktashodhak,0.46398833,0.24820435,-0.43862978,0.15479301,-0.26642483,0.3638115,0.2935515,0.7482866,-0.24715391,0.1400831,0.38279217,-0.4326206,-0.3750997,-0.33341438,-0.24700718,0.27939266,-0.57720107,-0.3926492,-0.14687146,-0.11352447,0.11313863,-0.3996951,0.3380187,0.023548573,0.07073169,0.50654155,-0.42974555,-0.25692362,-0.2103329,0.14107393,0.0010064145,-0.4215934,-0.15425678,-0.33381525,0.1675359,-0.36416852,-0.18440165,0.16450939,0.037978128,0.35565335,0.011004944,-0.23628214,0.2168651,0.2558942,-0.34751478,0.117257506,0.44376045,-0.61316824,0.2972373,-0.20553105,0.31706935,0.15393579,-0.28182378,0.27572277,0.30511913,-0.2113609,0.37711698,0.07001592,0.14719553,0.13226098,0.11438359,-0.62747896,-0.5011938,0.07210741
prabhav_chakshushya,0.24439056,-0.6690872,-0.19242893,-0.46774542,-0.030357162,-0.17424919,-0.029653298,0.056450788,-0.5327402,0.07850291,0.24108836,0.5765987,-0.17365532,-0.24648769,-0.14220516,-0.017000448,-0.13248385,0.020336483,0.3447793,0.040551793,-0.3391054,0.06456057,0.08026261,0.2442939,0.2796965,0.42175338,0.5396176,-0.3028467,-0.31625104,-0.12762532,0.8190209,0.086328074,0.09277466,-0.2112769,-0.028995994,0.3526399,0.194721,0.23723795,-0.26593468,-0.638324,-0.17296867,0.33746982,-0.3862786,0.26454288,-0.08578336,-0.0066405474,0.77425545,0.12399807,0.41663638,0.25499,-0.149999,-0.11446267,0.11606741,0.092483826,0.41691235,-0.43392992,0.41719264,-0.30557472,-0.33936343,0.5449664,-0.28726527,-0.5679653,0.22668979,0.021402955
prabhav_brimhaniya,-0.18575607,0.415543,0.15373681,0.062014177,0.08932732,0.18549442,0.10819618,0.24501532,-0.112307206,0.04778545,0.4769751,0.28293902,-0.22113931,-0.03337681,-0.13912664,0.57579195,0.094872095,0.035668347,-0.1587983,0.32113075,0.011650563,0.114541404,0.31631944,-0.10856639,-0.17254788,-0.2653566,-0.0893367,0.24000894,-0.440609,-0.12862113,0.51113087,0.3141309,0.03986911,-0.608852,-0.10199244,0.11990885,-0.18996711,-0.54820305,-0.21112254,0.40357482,-0.31475747,0.00189696,0.15749073,-0.56886923,0.13276345,-0.39705366,1.049487,0.3388349,-0.09116682,-0.38960594,0.18241307,-0.66699266,-0.20353828,-0.48801133,-0.36146894,-0.16431706,-0.013966353,-0.53314245,-0.17924757,-0.16476507,0.042082783,-0.5438997,-0.0020765485,0.07686599
prabhav_raktastambhana,-0.18456782,0.13628387,-0.10973419,-0.50381625,0.6556616,-0.20177048,0.8557042,0.1288171,0.25887257,0.028837057,0.23821476,-0.22844273,0.58291686,-0.31946948,-0.47193477,0.27081147,0.24407476,0.07510817,0.30793357,0.4045697,-0.11798946,-0.04237297,0.257217,-0.25107995,0.19800274,0.49930066,0.08495757,0.29936907,0.24085489,-0.38606647,0.1823107,-0.00072557305,-0.5297615,0.4301459,-0.15807651,-0.29325575,0.2377308,-0.112528324,-0.080643736,0.20038667,-0.042656723,-0.11453308,-0.008815403,0.20761767,0.25876775,-0.020086972,0.28661582,0.15787435,0.53218895,-0.06676144,-0.05487495,-0.26315814,0.23172419,-0.035457592,-0.17136243,0.28635988,0.16350508,0.26755446,-0.30681685,-0.6762161,0.21231467,-0.51192355,0.72970384,-0.50320286
prabhav_shwasahara,0.3226269,-0.054081272,0.26311105,-0.36835757,0.58489555,0.027259214,-0.059115615,-0.11326995,-0.26798865,-0.04188877,-0.12757069,-0.06234013,0.27772197,-0.6731314,-0.5042007,-0.23413318,-0.02687575,0.19042045,-0.14756343,0.47664404,-0.063452765,-0.08359357,-0.29713228,-0.61792094,-0.22625282,0.20394628,-0.0078049335,-0.10438783,0.12984397,0.48174134,0.17643365,0.1708644,-0.10048384,0.2370569,0.35487598,0.06973021,0.32821566,-0.5020094,0.07971484,0.19192927,0.37693533,-0.097667016,0.4100908,-0.1999719,0.36189622,-0.11467247,0.37890124,-0.2509445,-0.26355132,0.02972152,-0.18883029,-0.6611317,0.2098423,0.2338299,-0.023802282,-0.35528398,-0.17782617,-0.8206769,-0.12650046,0.065201364,-0.35829827,0.27366626,-0.54774487,-0.18955208
prabhav_yakrituttejaka,-0.0038836296,0.29014283,0.34090817,-0.2970434,0.039342616,0.42791766,0.13567124,-0.34371632,-0.14779891,0.16786133,0.29463872,-0.48888335,0.14006963,-0.18825233,-0.47108978,0.04453119,-0.79880726,-0.13363361,-0.6893174,-0.2160941,0.2322796,0.26184836,-0.051084947,-0.18489833,0.17376652,0.10938365,-0.19120549,0.47413722,-0.111768894,0.17928198,0.1074252,-0.43286157,0.55208117,-0.053772055,0.11058405,-0.44582066,-0.6359738,0.13056326,-0.2642415,0.16417539,-0.4427698,0.0077854297,-0.16110246,0.1359611,0.5169477,0.5201748,-0.32200152,0.5186581,0.025791438,0.25442433,-0.50577843,0.11954239,-0.024815872,0.360044,-0.40324116,-0.16402516,0.051466238,-0.2655759,-0.4372033,0.095649384,0.13365003,-0.5118173,-0.2759935,0.13300876
prabhav_dahashamana,-0.6104736,0.34021148,-0.101307794,0.33384398,-0.06471209,-0.32652733,0.9067116,-0.01851424,-0.20678048,0.7820789,-0.17779826,-0.5062893,-0.30088875,-0.24850264,-0.7017239,0.09736319,0.09897035,-0.18386897,0.047604438,0.11466779,-0.40296987,-0.06136597,0.23814568,0.14320229,0.17764796,0.2634877,0.4537205,0.33684364,-0.47838488,0.075238645,-0.1525965,0.5322903,0.48215973,0.08419187,-0.28386724,-0.0071674115,0.35500893,-0.61379975,0.021498034,-0.55359113,0.12885313,0.039636564,0.27015135,-0.16615985,0.3844806,0.5868927,0.34757227,-0.22134614,-0.17622258,0.100067325,-0.12955484,-0.3742773,-0.03186551,-0.33953583,0.25805745,-0.016716998,0.16560052,0.024792818,-0.099121474,0.1920044,-0.14689055,-0.39875805,-0.124560684,0.30043694
prabhav_varnya,0.00504652,0.11910704,-0.8531785,-0.3428177,0.31466928,-0.17473467,0.07400347,-0.247539,-0.2793472,0.40870398,0.7417681,0.14665318,-0.25292125,0.28187725,-0.26076403,0.16360208,0.024393208,-0.50059766,0.21534726,-0.115193,-0.017921207,-0.35363623,-0.2648265,-0.20109662,0.101309605,0.2482894,0.052829597,0.34557885,-0.023989858,0.25273558,-0.15382218,0.10123781,-0.38338247,0.56035143,0.05814855,-0.09461507,0.14265567,-0.0033592335,-0.060848042,-0.26003075,-0.43477198,-0.28022835,0.43405363,-0.11164564,0.20143768,-0.44885686,-0.34539202,0.17641869,-0.09855631,0.09137743,0.20879664,-0.3143359,-0.70175713,0.3615323,0.5212097,-0.54348433,0.11832138,-0.05610852,-0.2866069,0.05497126,0.12108392,-1.0494199,0.087247394,0.41156933
rasa_lavana,-0.12909271,0.19415507,-0.14068004,-0.36101297,-0.5255399,-0.16752926,0.13166147,0.07220578,-0.13482235,0.34699512,0.35862982,-0.10469403,-0.19776732,0.047953643,-0.3802294,-0.23170505,-0.09038761,-0.91918325,0.11275627,0.16502708,-0.08044242,0.43637276,-0.015026695,-0.82597107,-0.31421635,-0.23185575,0.45037153,-0.2740946,0.21599434,-0.29634994,-0.0741896,-0.35078728,-0.20179054,0.08448168,-0.15739173,0.61489,-0.05309965,0.17089266,0.2277302,0.21808496,-0.08483643,0.08949457,-0.4788205,-0.3800139,0.14589925,-0.16206145,-0.04055482,0.4548076,0.80768126,0.009051813,-0.025762571,-0.19761905,0.22056857,-0.26347175,-0.11543259,-0.40867385,0.44707128,-0.16886464,-0.23047385,-0.29221085,-0.3718134,0.28065595,-0.30217457,0.0766633
prabhav_vishaghna,0.5390926,-0.2327882,-0.20346203,0.17824005,0.018808857,-0.080727026,0.23977983,-0.050395265,0.06150228,0.3627077,0.16627742,-0.41395494,-0.12422327,0.12626313,-0.001252543,0.18370247,0.31473377,-0.51304483,-0.45016178,0.63636965,0.12520008,-0.31486785,-0.72312474,-0.1866646,-0.3908775,0.15896599,0.21469057,-0.38830075,0.38195938,0.7815428,0.5678834,-0.09207767,0.6343,0.040257704,0.10402396,-0.35579315,-0.62874043,-0.2577679,0.09803873,-0.15005341,0.04328522,0.53818005,-0.27681428,0.13180129,0.052433968,-0.03878965,0.5669161,-0.15068279,-0.02326504,0.252347,-0.3782352,-0.14581928,0.13316238,0.05578593,-0.33179006,0.024527414,-0.07130865,-0.036905967,0.004055746,-0.26889464,0.037026577,-0.52316105,0.60982996,0.09539352
prabhav_keshya,0.24194187,-0.24090084,-0.14465556,-0.48335904,0.4348526,0.7478583,0.27873975,-0.22636889,-0.5521212,-0.62909096,0.3297398,-0.22242345,-0.11808242,-0.13978207,0.070956886,0.5280951,-0.11156638,-0.34222662,0.20740578,0.16042772,3.2354183e-05,0.65132743,0.32280672,0.41786912,-0.22473553,0.44212618,0.00048334923,0.033543523,-0.34386915,0.122781105,-0.032055292,0.03807812,0.53335077,0.00242131,0.4503536,0.19345224,0.10498034,0.2929077,-0.116997704,-0.01423353,0.17198186,0.11820123,-0.28662336,0.26543403,0.44897106,0.12699343,0.44472817,0.22200796,0.11632777,-0.40142074,-0.27297556,0.17896937,-0.23206055,-0.12725993,-0.16372168,-0.33385602,0.049061667,-0.15777661,-0.43396774,-0.29497114,-0.7900842,-0.2879288,0.509645,0.20253311
prabhav_vranaropana,-0.46957064,0.22455692,-0.7145368,-0.056587532,0.24961305,0.6052163,0.009278134,0.12941793,-0.12222828,0.07888333,6.174413e-05,-0.10745705,0.035481717,0.16788742,-0.10995507,0.52735186,-0.4316361,-0.0049244035,0.16761047,0.40792966,0.13335375,-0.3591832,-0.34823614,-0.10185584,-0.5476524,0.29627603,-0.1651163,0.2176498,-0.11136509,0.32755762,0.077297874,-0.031545337,-0.5516476,0.22654061,-0.40236062,-0.077473745,0.0951789,-0.061077837,-0.20806181,0.12919971,0.1521602,0.5707459,0.10298938,0.75951135,-0.08265125,0.25397053,0.19612087,-0.17662202,0.020150244,-0.30199248,-0.022756,-0.2109859,0.38510773,-0.56753224,0.19830868,-0.133489,0.28835234,-0.34652653,-0.8286508,-0.12842996,0.16006759,0.12459394,0.36568767,0.7841701
vipaka_amla,0.0310796,0.2466857,0.26281086,0.100133285,0.7416138,-0.17159493,-0.43717626,0.31848237,0.16262722,0.21453479,0.36730033,-0.20643814,-0.3520474,0.01709132,0.06640345,-0.19687316,-0.15763628,-0.4193169,-0.41123486,-0.22745968,0.2869008,0.13708004,0.3418585,0.06958883,-0.01839477,0.35848737,0.56084836,-0.4994549,-0.22408715,0.08938414,-0.53339046,0.7531869,0.22583082,-0.06693926,0.076616816,-0.07638969,-0.103272766,0.022943899,-0.4232777,0.017965367,0.053951245,0.36763847,0.09391594,-0.11904931,0.1231974,0.18518484,0.19804478,0.037386864,0.59827346,-0.3037199,0.0029377511,-0.1582814,0.33099028,0.12677987,-0.009062294,0.41088486,-0.1047353,0.13480635,-1.0410903,0.113224454,0.045264073,-0.31896967,-0.0409803,-0.016902074
prabhav_amapachana,0.6851244,0.1104748,-0.08422824,-0.47083294,-0.024020534,-0.04351818,0.3072472,-0.1392372,0.20305103,0.2572193,0.28051648,0.20987083,-0.2501805,0.36928266,-0.2932159,-0.36460888,-0.06890069,0.4261526,-0.4445407,0.56454176,0.16379535,0.2384112,-0.082288556,-0.28555065,-0.3863022,-0.5382223,-0.87938124,-0.04084989,-0.398073,0.0034306264,-0.11095175,0.41525397,-0.22428069,-0.17420988,-0.43794033,0.30320376,-0.1126109,0.056331217,-0.09679466,-0.10872261,0.09880885,0.5292541,0.1582811,0.18687975,0.11103251,-0.053310577,-0.15779859,-0.010189073,0.2439227,0.1614523,-0.5407001,-0.33708608,0.25249237,-0.2536409,0.21069004,-0.32291454,-0.53766644,0.1908107,-0.12712042,-0.06686415,-0.7254008,-0.53031266,-0.25351244,-0.03916652
prabhav_pramehaghna,0.02851523,0.6528185,-0.30819848,-0.068754554,-0.24571559,-0.51289654,0.36776963,0.28550005,-0.114675574,0.2610227,0.30804864,-0.2277447,0.5020145,-0.13796514,-0.07518616,0.9592321,-0.0052476833,0.22069147,0.109554075,-0.018667985,0.20568095,0.21497883,0.15978412,0.08324636,0.57070935,-0.14444546,-0.26151732,0.09405474,-0.090955526,-0.077713795,0.8548209,0.15961576,0.35148165,0.3291348,0.20533419,0.22156055,-0.28442731,0.05895915,-0.143996,-0.10682697,-0.10680054,0.7074654,-0.16369388,0.1654948,0.42814004,-0.012875775,0.10491528,-0.49191064,0.652491,-0.20328088,-0.06599673,-0.40546498,-0.013497281,0.7548619,-0.09063338,0.015020435,-0.2584196,-0.15284945,-0.35712996,0.118377805,0.1118606,0.43030736,-0.065907836,0.0054656174
Haritaki,-0.0066618314,-0.041286267,-0.14758417,-0.15753248,0.26383057,-0.24866433,0.18370403,-0.09927556,-0.16589272,-0.052316617,0.26462314,-0.24496533,0.25229296,0.06519241,0.08644053,-0.043759275,-0.22370183,-0.11278385,-0.044602513,-0.057841953,0.12592177,-0.061467025,0.14645498,0.011299922,-0.39805418,0.19454451,0.11047819,0.03270777,-0.105138145,-0.048064154,0.30995914,-0.14901379,0.103140354,-0.31950226,-0.13702248,0.29240784,0.2192018,-0.18453299,-0.33190712,0.015490939,0.1689291,0.18036522,0.2583507,-0.15766695,0.17017634,-0.07997998,0.29406253,0.12176376,0.23058058,0.17659777,-0.157186,-0.04975802,0.09389891,0.28524852,0.055282883,-0.13475536,0.05666124,-0.11684662,-0.2476959,0.20853041,-0.057393957,-0.3885092,-0.020786216,-0.119807005
prabhav_vedanasthapana,-0.1338773,-0.06946171,-0.0008342414,-0.3679248,-0.26521447,-0.16891098,0.0010875921,-0.031097274,0.10291622,0.62370026,0.29279482,0.005591837,-0.14046514,-0.26743713,-0.0652231,0.23279637,0.06815136,-0.15865234,-0.12403894,0.43181223,0.26533934,0.9663054,-0.18411154,0.16529116,-0.42340896,0.2739724,0.06059634,-0.19849928,-0.21367167,0.27800667,0.2077638,-0.12720327,-0.15195167,0.33325407,1.0685711,0.2723598,0.60860455,0.24794449,-0.3819658,0.19810152,0.4459322,-0.37190804,-0.1126121,0.23116736,0.11986743,0.19559439,0.4240471,0.1547257,-0.21614087,-0.049611658,-0.22618741,-0.624153,-0.22217609,-0.28969997,0.2740133,0.5877191,-0.25193533,0.034363963,0.10568115,0.31549668,0.06670869,-0.118322365,-0.23872274,-0.11179764
Triphala Churna,-0.10064694,-0.10203174,-0.099113725,-0.18805239,0.17766069,-0.28709316,0.17162275,-0.08932192,-0.24371493,-0.02442761,0.17705853,-0.33428198,0.3425294,0.00033174283,0.08924535,0.083718404,-0.15753688,-0.066817194,-0.07409933,0.045096517,0.11621411,-0.020529125,0.22706021,0.015891261,-0.26873976,0.13937216,0.05824638,0.07516171,-0.10537533,-0.030168772,0.29245856,-0.064513326,0.07504697,-0.2734104,-0.21022108,0.20150217,0.25403133,-0.094489895,-0.40662998,-0.02516186,0.072309464,0.1829674,0.3286451,-0.18236883,0.10372592,-0.04225372,0.34177455,0.14678006,0.27746943,0.058996107,-0.114273146,-0.08749214,0.1942112,0.3079212,0.02010606,-0.08042014,0.11785157,-0.1005688,-0.19074558,0.16735223,-0.08515509,-0.45834553,-0.009903804,-0.08603652
Musta,-0.103113405,-0.03468078,0.018696982,0.031448405,0.020439157,0.15786783,0.17457159,0.07970297,-0.09498133,0.10267566,0.23504002,-0.14976446,0.06135242,-0.095609985,-0.12873772,-0.041470077,0.072698206,-0.0105278455,0.05596634,0.13503471,0.06166785,-0.054886837,0.07435191,-0.033248007,-0.09212174,0.2521103,-0.31916866,-0.08994632,-0.10322258,-0.025561834,0.32203886,0.20369275,-0.036098357,0.027556373,-0.006426152,-0.027287642,-0.1145726,-0.009118016,0.050821874,-0.14449877,0.24112138,0.20108098,0.07054766,-0.05875699,0.06229353,0.10923762,-0.1158054,0.197558,0.46542338,0.21981838,-0.0080816345,-0.20912658,-0.30693966,-0.034178652,0.011413034,0.327416,0.17318748,-0.26498199,-0.04482678,0.15876883,-0.039595976,-0.21812329,0.040860668,0.11708595
prabhav_rasayana,0.047275852,0.11643339,0.060502805,-0.31039992,0.8095822,0.19247787,-0.025214922,-0.04608487,-0.82909864,0.4412409,0.2687731,-0.8579847,-0.64401543,0.43562523,-0.18702157,0.17429002,-0.22791176,0.07665715,0.42624864,-0.054132618,0.089207456,0.22934216,-0.46499807,-0.05549413,0.30326656,-0.30783918,-0.05839681,-0.2515946,-0.2841341,0.23475528,0.24452665,0.3588782,-0.0713784,0.45276278,-0.08304054,0.38719487,0.18083437,-0.4493053,0.084064625,0.67767406,-0.2169995,0.009848452,0.47985384,-0.0413639,0.2847214,-0.23959748,0.047321044,-0.22855361,0.51446944,-0.08665091,0.20264757,0.10275315,0.023117665,0.21108982,-0.13804944,0.02991625,0.20810264,0.37662524,0.29635018,0.504115,-0.40782163,-0.30303058,0.38598317,0.28996694
Bhumyamalaki,-0.07954255,0.29268923,-0.2368424,-0.32161966,0.21804081,0.09853699,0.22276308,0.10167592,0.13352312,-0.064444266,0.26880038,-0.12999223,0.024788227,-0.20025617,-0.13948262,-0.033848837,-0.38166055,0.04453217,-0.37014398,0.3193269,0.078307554,0.09269926,0.02391077,0.079251796,0.12830654,0.23905665,0.028850118,0.053392623,-0.22611496,-0.14059399,0.023243252,0.08531028,-0.14219286,-0.094761,0.32710582,-0.07504233,-0.2666215,0.123253584,-0.19022217,-0.002499772,0.0036522562,-0.13989246,-0.2437675,-0.26787767,0.08171239,-0.17750728,-0.018165747,0.06878306,0.08531077,0.27852267,-0.09426731,-0.13631183,0.22099602,0.0804898,-0.21343708,-0.2023296,0.18459982,-0.5281867,0.015412476,0.3909608,-0.0509968,-0.28936014,0.11338884,0.31632254
Taruni,-0.24668022,0.015801754,-0.20855713,-0.26054937,0.18210463,-0.18249461,0.15300089,0.04695267,-0.13064441,0.06990782,0.46367976,-0.064351186,-0.10125206,0.13359997,-0.17604806,0.07843225,-0.018421214,-0.057409327,-0.10725041,0.080638744,-0.25344127,-0.041785732,-0.18628664,0.16656227,0.06566163,0.08339588,0.08399637,-0.098604575,-0.3557142,0.15076816,0.13449706,-0.24292539,-0.045631435,0.16371466,0.02595522,0.07328145,0.14749487,-0.19402908,0.09189766,-0.12901829,-0.18623568,-0.01882835,0.0986211,0.03944102,-0.103885904,0.066927776,0.33409703,0.2548975,0.2685973,-0.025803596,-0.3141006,-0.2915392,-0.092917435,0.5454498,0.24482733,-0.2510808,0.16536379,-0.2360056,-0.2302129,0.07809271,0.015898617,-0.47473377,-0.0814995,0.09801265
Pippali,-0.102514364,-0.14361078,-0.18103579,0.079316616,0.30931845,-0.24236226,0.064379774,0.08041579,0.03926919,-0.2015383,0.5037657,-0.035842665,0.012432092,0.24708055,-0.26607314,0.19357082,0.17444566,-0.2259473,0.2290046,0.14484751,0.18298744,0.1238777,0.04537702,-0.082732804,-0.3417438,0.28796658,-0.049418613,-0.08834245,-0.21489534,-0.17243405,0.18901971,-0.009279466,0.032436885,0.006849191,-0.02356883,0.094520696,-0.20830505,-0.013181542,-0.052305836,0.18607453,-0.089153096,-0.14246675,0.17396334,-0.22072782,0.17829485,0.073275626,0.2616518,-0.22661091,0.1619934,0.30898982,-0.08401739,-0.11608024,0.23242624,-0.16000897,-0.13654608,-0.22068821,-0.13474983,-0.20554343,-0.17458794,0.2598567,0.06058479,-0.0039040346,-0.13707007,0.06642104
Vajra Bhasma,-0.23457071,0.29351842,-0.24018262,-0.064269975,0.23398124,-0.062323757,0.31319973,0.15769444,-0.19340661,-0.08358357,0.3686108,-0.2357313,0.026100704,0.19263475,-0.3563838,-0.027354984,0.18717444,0.07889948,0.0555652,0.14105076,0.19938047,0.1387674,-0.14521584,0.01881266,-0.2085539,0.11229932,0.09986437,-0.026090337,0.093957335,-0.10563046,0.18601981,-0.004783051,0.122026786,0.1705145,0.00036250995,-0.036650524,-0.0929599,0.095742255,0.034199696,-0.1704505,0.027629366,-0.051923472,0.25020367,-0.38885915,-0.11610234,0.27775827,0.55891997,0.03631047,0.2521085,-0.0064817243,-0.22962321,-0.15717909,0.023468412,0.117423855,-0.00937806,-0.40166268,0.18264665,-0.19659217,-0.30094972,0.17554335,-0.0731536,-0.15001781,-0.10431118,0.016863793
Vidanga,0.042743877,-0.008083491,-0.11649318,0.026924439,0.021328082,0.15024301,0.16084877,0.07808661,-0.18952006,-0.042281933,0.068838075,0.10179893,-0.121482536,-0.07619678,0.022793768,-0.07365122,-0.030830953,-0.08321985,0.034174625,0.08501475,-0.013996442,0.37098154,-0.06841842,-0.25820014,-0.16595532,0.12929486,0.12589951,-0.1197332,-0.01032896,-0.28663906,-0.062401846,-0.12814724,0.15501171,-0.049083572,-0.25421858,-0.08453309,-0.007984901,-0.3630398,-0.10023291,0.1412275,-0.26478806,0.1557864,-0.118378915,0.110343754,0.26294696,-0.05633166,0.08871524,-0.18486725,0.17972054,0.23078728,-0.075458184,-0.15699245,-0.29032654,0.11564363,0.13945204,0.1084741,-0.12610221,-0.23910011,-0.18670906,0.3126445,0.012410627,-0.16244455,0.04904621,0.16904862
Hingu,-0.26488504,-0.09853582,0.30234337,-0.0046673566,0.11037039,-0.042325694,0.16512814,0.13449399,-0.17183585,-0.14004722,0.17915174,-0.06544301,-0.009816836,0.213003,-0.2930922,-0.07887179,-0.037112586,-0.23564138,-0.21003611,0.19272485,0.045193892,0.18371823,0.26192647,-0.09111152,-0.010255456,0.09563237,-0.07148495,-0.18290466,-0.16413449,0.27186057,0.33576912,0.10356879,-0.26987195,0.06600862,-0.13581492,0.34029496,0.1344124,0.01885648,0.48227966,0.082351096,-0.28537363,0.19549413,-0.11718943,0.21829006,0.19319978,0.1592765,0.21025164,-0.052392468,0.23536801,0.10853923,0.12873162,-0.0056936466,-0.3048489,-0.2197979,-0.195577,-0.0073742876,-0.040630072,-0.12209341,-0.23572932,0.23457626,0.1359716,-0.038673736,-0.053940155,0.06902983
Chyawanprash,-0.013531087,0.0054455316,-0.20405315,-0.059229303,0.46926373,-0.09782145,0.015304541,-0.13964753,0.3633054,-0.21047646,0.36368296,-0.32065424,0.10135871,-0.06789081,-0.27093092,0.029082216,-0.06457541,0.008380628,0.077859566,-0.008151841,0.26994053,0.2070334,0.16645458,-0.3013424,-0.11811838,0.19526969,0.122869976,-0.16350128,-0.22753271,-0.045961056,0.28548905,0.032726508,0.16693039,-0.21393879,0.0014190687,0.17396536,-0.05209966,0.012570143,-0.07759892,0.25091797,-0.12967439,-0.02799722,0.17427355,-0.17382458,0.240428,-0.15494323,0.39330134,-0.008462922,-0.0123465285,0.040559735,-0.15283795,-0.19670625,0.08459053,-0.042213283,0.0863692,-0.008716404,0.20897864,-0.092700705,-0.15034732,0.37991503,0.15973298,-0.2728727,0.111662075,0.1496209
Chitrakadi Vati,0.29751876,-0.035208274,0.2544188,-0.09227164,-0.17840508,-0.0030362683,0.32955056,0.040722698,0.12752393,0.26451394,0.16485505,0.018568821,-0.1398676,0.201471,-0.2369228,-0.26356703,0.14833547,-0.24019758,0.016706731,0.08963582,0.076066546,0.17032838,0.06665328,-0.13600938,-0.30376548,-0.23362146,-0.2850259,-0.11843606,-0.115072265,0.013692083,0.094841056,0.05971794,-0.21204817,-0.23805614,-0.10746421,0.11725321,-0.08628502,-0.067191765,0.10338543,0.19784774,0.14710301,0.26256588,0.014151358,0.08652461,0.28542194,0.2038448,-0.15441401,0.20368247,0.4733886,0.20931815,0.03203718,-0.2599715,0.04300402,0.0012341702,0.039139643,-0.22876604,0.06260536,-0.021788498,-0.31886223,-0.0002243805,-0.33785436,-0.09290347,-0.14898257,0.24494527
Punarnava,-0.25971675,0.34474808,-0.24259272,-0.38859275,0.29699832,-0.046184033,0.1585517,0.01776849,0.10983873,0.017563863,0.05174892,-0.1407853,0.09421924,-0.07881717,-0.09793246,0.17165674,-0.31992355,-0.14969714,-0.02807709,0.11257887,0.4104812,-0.094993986,0.062051952,0.13119672,0.004292094,0.090696484,0.0323483,-0.20157775,0.07263488,-0.17792441,0.1172957,-0.24611896,-0.046306066,0.08623845,-0.10984861,0.10882653,0.02166234,-0.15075582,-0.016745267,-0.08694494,0.19875263,-0.06684467,0.03216547,-0.3097083,-0.05493603,0.077134,0.25410426,-0.0712798,0.124186374,0.08440704,-0.047310237,-0.21904029,0.003423968,0.008800747,0.093620695,-0.031013932,-0.25737926,-0.31951895,-0.035989493,0.32994443,-0.10711021,-0.40788394,-0.055938035,0.21612011
Ashwagandha,-0.047843337,0.16341192,-0.33728102,-0.0024096952,0.33296812,0.07141747,0.27407444,0.13741489,-0.13696563,0.2222832,0.24452369,-0.28519398,0.0388317,0.11884295,-0.19175059,0.01571679,0.15049629,0.065466836,0.038565915,-0.08105009,0.37711635,0.19281834,0.13640554,-0.26759833,-0.09883043,-0.026480116,-0.043200094,-0.11747543,0.035000566,-0.27120048,0.19147214,0.02047675,0.1531457,0.108197704,0.10177169,0.18345405,-0.06513369,0.14198068,0.21507576,-0.016951622,0.09635155,-0.012483701,0.22743732,-0.25724092,0.05041936,0.09369361,0.63675344,-0.053108487,-0.095878415,0.087662175,-0.049399797,-0.17667444,0.029890215,-0.16316143,0.032900564,-0.17802186,0.04042665,-0.1541442,-0.26245496,0.26505283,0.11302138,-0.24569236,-0.019612256,0.05663835
Dhanyaka,-0.34266677,-0.083342314,-0.22537825,-0.2633981,0.2601255,-0.06863032,0.13650006,0.14826941,0.101941995,0.1350287,0.25196302,-0.28685862,-0.013134375,-0.12360161,0.03650821,-0.17547826,-0.02044614,0.04858944,-0.16147889,0.103936985,0.17023459,-0.14294335,0.29866183,0.0976468,-0.023222493,0.18181166,-0.20637773,-0.2312353,-0.22626266,0.048845604,0.24029818,0.17649102,-0.06260892,0.09879286,-0.23099767,0.24325322,-0.26364705,-0.1214078,0.2061077,-0.008625574,0.19896095,-0.05419092,-0.15183291,-0.0794761,0.14765029,0.14385456,-0.0019180754,0.035211414,0.24796073,0.1706495,0.02658157,-0.12836015,-0.32312703,-0.13592635,-0.2280143,0.12359201,0.022474287,-0.3425649,-0.0065304623,0.15640761,-0.1971703,-0.20797278,-0.122116745,0.3666124
Shatavari,-0.3235447,0.26262036,-0.5830935,-0.25546184,0.07077309,0.15578581,0.21942887,0.2913181,0.1496723,0.15210932,0.6977821,0.105029315,-0.3317716,-0.11932062,-0.22069961,0.19934739,0.113168895,-0.24496742,0.31760073,0.20262417,0.32981017,0.13428974,-0.17453982,-0.19980837,-0.06887046,0.11754761,0.1277548,0.09207475,0.07756579,0.3703502,0.29179314,0.06577544,-0.043047547,0.11192693,-0.07436726,0.2704481,0.25489995,-0.10063595,-0.014533998,-0.11194996,-0.50533956,0.16175711,0.52515614,0.017251555,0.13716587,-0.29390034,-0.070410304,0.45442787,-0.13661417,-0.045483764,-0.1798528,-0.2566456,-0.13587049,0.16211334,-0.096950985,-0.22872041,-0.043270193,-0.25999576,-0.42829558,0.45032233,-0.13865106,-0.478893,-0.17638169,-0.2176049
Pushkarmool,0.19786844,-0.01249109,-0.19674706,-0.101314224,0.34179932,-0.24645178,-0.11508964,-0.0981778,-0.35727286,-0.11661586,0.19524693,-0.26254174,0.18587051,-0.13026479,-0.1004371,-0.060882796,0.037124757,-0.2020729,0.13237457,0.35794234,-0.17333125,0.1641079,-0.27294517,-0.24138884,0.1337938,0.042134643,-0.17879021,0.19332683,0.1256829,-0.018735837,0.09861916,0.56645036,-0.23245992,-0.15529114,0.21477883,-0.17464393,0.07588493,-0.31334558,-0.013520691,0.36712468,0.21133485,-0.20037073,0.023985967,-0.26445588,0.18711448,0.11768246,0.049759634,-0.34669298,-0.057854462,-0.101924695,-0.03747724,-0.1029758,0.13045454,-0.107216544,0.15172109,-0.19151515,4.7468628e-05,-0.6497454,-0.029414065,0.20708717,-0.20752645,-0.060086545,-0.040376488,0.14223854
Tulsi,-0.016754549,0.21386984,0.116583295,-0.059589107,0.22782934,-0.058488555,0.14229508,-0.008003607,-0.009479248,-0.5166546,0.24106526,-0.15170524,0.20488703,0.025565097,0.0916464,0.10552077,-0.09143466,-0.29671583,0.013984661,0.17354621,-0.11755895,0.30608696,0.08676175,-0.29740724,-0.23946735,0.03570742,-0.19811448,-0.20134354,0.17924224,-0.1961356,0.30264738,-0.102843285,-0.024159309,0.007093377,-0.13392523,-0.0004412515,0.13485304,-0.18272589,0.047815546,0.07771909,-0.39623764,0.099628165,0.05109376,-0.026852148,0.096551344,0.07530535,0.11116834,-0.20830838,0.023379013,0.081753135,-0.2412202,-0.049627494,0.2973656,-0.25879937,0.011136049,0.03568896,-0.028290745,-0.28472388,0.07249089,0.53534174,0.2095544,-0.37755343,-0.10563701,0.12371503
Swarna Bhasma,-0.20304398,0.27237436,-0.21856883,0.0039737104,0.17055349,0.058463108,0.28400514,0.15202548,-0.17671931,-0.03739896,0.32641616,-0.22463694,0.10917891,0.124620296,-0.33623123,-0.08649336,0.20467068,0.12328216,-0.031153647,0.02132603,0.3118807,0.2069566,-0.09533331,-0.0066705113,-0.27982426,-0.02419084,0.15513672,-0.20001848,-0.034728583,-0.16477206,0.25411433,0.09362355,0.10819988,0.16608982,0.028989911,0.023132479,-0.1014965,-0.0340408,0.18680994,-0.0932361,-0.20172402,-0.118951604,0.26837602,-0.3134173,-0.09743996,0.2585941,0.6754626,0.01738561,0.14842683,-0.09907604,-0.19326332,-0.14290413,0.032014158,0.078175314,0.086456984,-0.41500288,0.22797401,-0.1794941,-0.4108022,0.12513185,-0.030248865,-0.28347337,-0.07027579,-0.030743934
prabhav_raktavardhak,-0.36866242,-0.2086871,0.4604922,-0.44037035,0.39469257,-0.29652163,0.5799638,-0.63193554,-0.07342324,0.3347576,-0.1354569,-0.24745977,-0.52738243,0.4282694,0.07954647,0.21700765,-0.64811563,0.30567446,-0.024403254,-0.08785082,0.9819816,-0.048473947,-0.07184501,-0.23779324,0.28106856,0.07688624,0.03231206,0.14493842,-0.2761437,0.0064970925,0.39542767,-0.22990546,-0.079640545,-0.2012036,0.2780432,-0.18122873,-0.46534756,-0.7010259,-0.44448003,0.10673769,-0.2586608,-0.43109098,-0.4699024,0.020508867,0.17215623,-0.12034177,0.15860777,-0.04787388,0.37759852,-0.24288887,-0.28859007,-0.033542972,0.2260493,-0.41537672,0.24843141,-0.13140373,0.79505455,0.17557518,-0.44339418,0.61472374,-0.19729945,-0.23959698,-0.10448559,-0.10956867
Amla,-0.3095218,-0.07826951,-0.05216661,-0.26803765,0.21167278,-0.27060786,0.14039135,0.07418216,0.095698595,-0.26719677,0.45476577,-0.12356725,-0.037486438,0.119622305,-0.1996763,-0.015807468,-0.17783801,-0.04057708,-0.13795078,-0.1945571,-0.054425288,0.10842321,0.056283224,0.09256276,-0.32746717,0.112831794,0.20722505,-0.015453164,-0.060066175,0.1087818,0.3696464,0.08739481,0.18436599,-0.08350763,-0.29257965,0.2896484,0.20078754,-0.23587398,-0.16356626,0.10253173,0.15123367,0.05879656,0.17199162,-0.0359748,-0.0246651,0.107088424,0.56167114,0.17227603,0.47466782,0.12983732,-0.24343017,-0.13845791,-0.042675685,0.37221596,0.11729687,-0.07358607,0.33294818,-0.062172446,-0.2285865,0.065639876,-0.069504865,-0.36224282,-0.2097914,-0.043615434
Kushtha,-0.14302836,0.14520253,-0.24785438,-0.026424678,-0.07497531,0.052894503,0.35192138,0.058141064,0.065971,-0.04128136,0.3557782,0.027530907,-0.14867577,-0.15196048,0.1229613,0.34578982,0.04506105,-0.20224436,0.30380037,0.29050973,0.19149767,0.1092423,-0.20403588,-0.29350337,0.10299138,-0.15481111,0.15013121,0.019114671,0.37677622,0.2730091,-0.11021184,0.2407291,-0.09529012,-0.19261667,0.21093225,0.030247333,0.12482277,0.074778646,-0.1588085,-0.035811353,-0.120432734,0.28096566,0.21738718,0.11053699,0.09960307,-0.0723776,-0.050043352,0.0950626,-0.08729187,-0.06413776,-0.07030137,-0.15465292,-0.29797924,-0.07597598,-0.18761948,-0.032485746,-0.14274591,-0.38055623,-0.24799342,0.33036882,-0.42528218,-0.4753762,-0.12887964,-0.3235279
Shallaki,-0.08367184,0.0022391737,0.0083591025,-0.112889856,-0.05548368,0.19604743,0.12456183,-0.027628947,0.004337372,0.26966628,0.09709366,-0.2133388,-0.09100431,-0.113096476,-0.20876178,0.33833945,-0.101210624,-0.05741285,-0.0063210307,0.10902108,0.20031437,0.3572569,-0.18410735,-0.070022285,-0.12416575,-0.054146368,-0.05158225,-0.15581444,-0.057382014,0.025394347,0.15550469,-0.22192852,-0.12938704,0.18213284,0.43704885,-0.13804989,0.31707323,-0.07374574,-0.11869341,-0.18664256,0.3399177,0.03219312,0.015589082,-0.051460784,-0.12000641,0.10996425,0.21611139,0.20968482,0.23572212,-0.03280769,0.0041657584,-0.4354575,-0.109578945,-0.0028935235,0.20244002,0.47873315,-0.11669211,-0.12472474,-0.1104236,0.21131165,0.13035198,-0.3341887,-0.033500668,-0.0060715005
Shigru,-0.024762947,0.11248956,-0.031933423,-0.13496888,-0.13220486,0.07611183,0.14273535,-0.16307761,0.14203244,-0.09241651,-0.024495507,-0.22522913,-0.13177295,-0.09460674,0.10899222,0.18729602,-0.101679705,-0.22695696,-0.06117203,-0.065721065,0.11686945,0.21830711,-0.19556461,-0.3047802,0.09906216,0.14245154,-0.29767323,0.17371371,0.429635,-0.113201424,0.035232306,-0.2537395,0.07298259,-0.011660339,-0.08208508,0.15473644,0.02947782,-0.102948904,-0.010547204,-0.20333406,0.03930095,0.08272159,0.041657124,0.11296,0.1835137,-0.014370666,0.39628336,-0.17866684,0.24076116,-0.24868648,-0.044231813,-0.42595395,-0.07199499,0.059340127,0.264736,0.13102862,-0.36702093,-0.02843569,-0.1093827,0.44123185,-0.13813613,-0.13935402,-0.08903631,0.41928107
Jyotishmati,0.020214835,-0.14747107,-0.16424896,-0.08273557,-0.12045329,0.08987999,0.34528682,-0.063575536,-0.5293824,0.37938765,0.50025725,-0.44734043,0.16868736,0.03980742,-0.0026764744,-0.17550156,-0.113946915,-0.14111464,-0.008279549,0.041420776,0.16451678,0.06854113,-0.18760833,0.26057976,-0.27392647,0.24214418,-0.04522501,-0.26053557,0.23385125,-0.3848552,0.08434652,0.097079165,-0.17332938,-0.43097815,-0.21026424,0.05639574,0.03539999,0.22090432,-0.023541175,0.04925725,0.17858563,-0.09302848,0.3115994,-0.07597455,0.3005723,-0.07648335,0.4498221,-0.21093185,0.061431672,0.15716945,0.096444756,-0.07231794,-0.13898823,0.018576508,-0.3233059,-0.14788747,-0.12723912,0.045584783,-0.2786301,0.08050324,0.25064826,0.033463996,-0.15291011,-0.16917148
Gomutra,0.039164256,-0.084803484,-0.07749156,0.03959844,-0.35119966,0.01543385,-0.14368342,0.19365379,-0.20599943,0.05960667,0.116320305,-0.05318096,-0.12565312,0.11128119,-0.1206087,0.17666946,0.14523354,-0.29380667,-0.041709535,0.15555191,-0.06300157,0.41512194,-0.008545449,-0.3814587,-0.028872954,-0.11245229,0.16397244,-0.18504328,0.1733458,-0.12904404,-0.18129686,-0.23889786,0.09608642,-0.012362279,-0.12627944,-0.059579603,0.043151602,-0.31393406,-0.021631403,0.19877404,-0.22568709,0.06302337,0.071811125,0.2513355,0.29620522,0.0380371,0.07371879,-0.031946406,0.21549882,0.23933354,0.16285147,-0.29776257,-0.15516414,0.058424253,0.075349435,-0.21693051,0.23087756,-0.10376258,-0.3132427,0.27730766,-0.39485437,0.046626914,-0.020472925,0.16461842
Kanchanara Guggulu,0.11675243,0.19227897,0.035474133,0.018598018,0.40103638,0.112538666,-0.11837837,-0.08491938,-0.153189,0.22106534,-0.33470574,-0.3413441,-0.1822545,-0.22272383,-0.10915075,0.256002,-0.0022560458,-0.31476712,0.06297241,0.30992642,0.28178108,0.19365075,0.010874636,-0.16989438,-0.062533714,-0.25242874,0.0051908744,-0.21462014,0.05569459,-0.24012205,0.07277503,-0.12993902,-0.0015817821,-0.03291873,-0.32284176,-0.17530216,0.037844103,-0.053521432,-0.2088882,-0.10834813,0.11446373,0.019603942,-0.057008777,-0.14597572,-0.006394209,0.06995446,0.26305932,0.15893963,0.2615024,0.20745347,0.21985322,-0.2320735,-0.3669196,0.07510257,0.35544464,-0.23536272,-0.45143515,-0.2899447,-0.14169383,0.1323197,0.19869126,-0.3488078,0.25214708,0.17492022
Kanchanar,-0.4012807,-0.1043262,0.06931976,-0.045489743,0.36389294,0.08670164,0.10379773,-0.029526856,0.054037113,0.3083528,-0.37826294,-0.27669817,-0.006683592,-0.18153735,-0.032973573,0.09296615,0.07446899,-0.3180496,-0.005775623,0.19698587,0.122017495,0.060924936,-0.16502577,-0.24135225,0.13865095,-0.21065575,-0.045956206,-0.28735158,-0.038739998,-0.32077187,-0.10571036,-0.2025452,0.11501842,-0.042621993,0.0066345884,-0.048998725,-0.08486503,-0.08314247,-0.055577952,0.053781066,0.028364226,-0.280271,0.044947155,-0.06630452,-0.24596117,0.42461067,0.38173917,0.1864867,0.35376135,-0.040302034,-0.100271836,-0.060987297,-0.4256988,0.19902799,0.38730338,0.08004343,-0.20731936,-0.16845916,-0.20325047,0.4694852,0.18205985,-0.18425745,0.38657823,0.18996067
Vacha,-0.07857729,-0.039719053,0.14245403,-0.26818573,-0.032534402,0.28245273,0.3030499,0.13987686,-0.4830893,0.2597974,0.17491648,0.009564142,0.17091385,0.19614027,0.07873746,-0.13777453,0.32652095,0.12531254,-0.02305741,0.14888734,0.19513658,0.42692345,-0.2256114,-0.19257008,-0.11456828,0.18097459,-0.014356784,0.11389593,0.40189674,-0.4007339,-0.17871483,-0.098262616,-0.042209234,0.10501247,0.0049016248,-0.17429124,-0.01311497,0.08297328,0.099052206,0.049518816,-0.20740615,0.17514865,-0.140679,0.15069267,0.26257095,0.060653295,0.52989954,-0.43268806,-0.08577321,0.07709384,0.100470476,-0.2636513,-0.063143864,-0.014676029,-0.10749618,-0.11031454,0.22406857,0.026324358,-0.14401859,0.23205678,-0.07223223,-0.2836594,-0.37982854,0.15262644
Shunthi,-0.24616824,0.07262402,0.16470826,-0.067629516,0.19591908,-0.14553933,0.33574077,0.076101676,0.17206085,-0.08626233,0.26799765,0.030562773,0.09065119,0.19534804,-0.2478328,-0.199169,0.11933084,-0.1632228,0.031176036,0.017657511,0.19199377,0.08737265,-0.027223017,0.08375986,-0.41926068,0.11063148,0.10631241,-0.08260249,-0.030446133,0.25761184,0.28745475,0.07527357,0.12117146,0.0064326567,-0.34186268,0.12946305,-0.0011556654,0.13093232,0.2240148,0.31689516,-0.013546036,-0.100431256,0.21272776,-0.033287957,0.1984045,0.29088527,0.24679339,0.15265423,0.33920792,-0.016767338,-0.30858353,-0.14524974,-0.30292326,0.052330513,-0.013172562,-0.09190563,0.09624249,-0.14142698,-0.14796822,0.27648696,-0.2272598,-0.16882792,-0.1998907,0.14261453
Triphala Guggulu,-0.25904262,0.07054872,-0.27141646,-0.023450835,0.18986891,0.30303752,-0.00427949,-0.13953263,-0.08239154,0.21161096,-0.22366054,-0.2020939,-0.10005503,-0.22883172,-0.1091619,0.24015012,-0.15132059,-0.17246379,0.10002232,0.21485662,0.24266472,0.09111246,-0.27726966,-0.1424743,-0.30279183,-0.12957343,0.028544154,-0.09701467,0.017727155,-0.08844388,-0.07073973,-0.08489408,-0.15068072,0.07793952,-0.2628074,-0.09504504,-0.0072420468,-0.11254349,-0.24927464,0.043193314,0.07934812,0.24766165,0.10292999,0.15386029,-0.18326533,0.14125352,0.30298054,-0.08681665,0.18384875,-0.11504856,-0.035288807,-0.14881311,-0.07108278,-0.11554906,0.25641435,-0.12739612,-0.12781431,-0.27240962,-0.39293757,0.3180595,0.15520622,-0.02820321,0.32114616,0.47895324
Balaswagandhadi Thailam,-0.078325115,-0.021302594,-0.18228363,-0.0077632503,0.31639126,-0.027478246,0.06288837,0.123493925,0.043475088,0.026111148,0.28828076,-0.11840305,-0.1376973,-0.026836704,-0.2463664,0.22268227,0.09497563,0.09955045,-0.11586208,0.0023558666,0.23980762,0.12351532,0.05408111,-0.09295963,-0.0026844312,-0.07094497,0.100431874,0.11985418,0.049739454,-0.016707826,0.51085496,-0.07428444,0.24594113,-0.21800701,-0.16131069,0.05571163,-0.14781094,-0.101135865,0.07399408,0.2527319,-0.15677941,0.020293877,0.40217915,-0.1292366,0.2504425,0.074958965,0.34930065,0.1051027,-0.027501348,-0.24226867,-0.08353398,-0.23617163,-0.06792942,-0.34150168,0.056585576,-0.12706539,-0.0075315204,-0.30250418,-0.19657172,0.30252546,-0.025062019,-0.46909812,-0.019923167,0.10433312
Giloy,0.025429804,-0.20341252,-0.18252912,0.023643484,0.0053797234,0.26560014,0.16776302,0.11309379,-0.08910082,0.1634246,0.4698054,-0.6886897,-0.25326398,-0.3822051,-0.106380075,0.13140924,-0.44772246,-0.16780396,0.32778424,-0.014797973,0.3047721,-0.120165534,-0.12235778,0.19251424,-0.09605244,0.17578226,-0.23267385,-0.38162094,0.24419968,-0.2739054,0.3286723,-0.115777954,-0.11677524,-0.035633743,-0.6206241,0.005351729,-0.13342126,0.16362134,-0.1438424,0.02565191,0.2534857,-0.20276539,0.19440679,-0.19641763,0.16527458,0.19613318,0.31917083,-0.005278857,-0.03540043,0.008903849,-0.12587059,-0.33302692,-0.25079948,-0.14344357,0.032993615,-0.017056944,-0.0768309,-0.016531907,-0.0067053903,0.2092842,0.09171509,-0.22923976,-0.42060038,-0.11523283
Takra,-0.047123212,0.10659448,-0.15814824,0.006151992,0.2446339,0.105883636,0.11090768,-0.012743318,-0.020936465,0.013362666,0.011964933,-0.09048787,0.05714826,0.019980676,-0.2296,-0.0032558506,-0.114428245,-0.07543804,0.01488897,0.08187986,0.27411824,0.29331452,0.046644375,-0.23788084,-0.061386365,0.21451597,0.029014558,-0.08798558,-0.20610718,0.07323336,-0.09638434,0.0425933,0.20568813,-0.20072082,-0.20027475,0.110453404,0.022550777,-0.30245814,-0.36400187,-0.0131287975,0.31030878,0.2453001,0.07890018,-0.108108215,0.08845913,-0.123037905,0.18147187,0.042980976,0.3929383,0.18710995,0.03648976,-0.07970949,-0.32882753,0.21212508,0.29054832,0.11732647,0.25771862,-0.13402142,-0.28523484,0.28772712,0.12878868,-0.06404282,0.1987308,-0.09598485
Indrayava,0.2584323,-0.020200422,-0.101738445,0.16276792,0.048280932,0.5238078,0.34584677,0.24107882,-0.1710909,-0.089935556,0.18911056,-0.12993382,-0.0011444902,0.023428803,0.03485235,0.21461141,-0.35653415,0.026516313,-0.13686691,0.06394198,-0.062702104,0.16912705,-0.17039892,-0.3407657,0.16307563,0.27957544,-0.10996255,-0.15444972,0.11045577,-0.15517434,0.25756767,-0.03791496,-0.16005272,0.09862347,-0.13036327,-0.21573682,0.15506653,-0.28166667,-0.03633079,-0.06839085,0.03197354,0.013905749,0.019446578,-0.09993101,-0.10325721,-0.018036762,0.1474747,-0.1762357,0.23161723,0.15970886,-0.08535375,-0.29671595,-0.15022878,0.06874039,0.107229926,0.29956633,0.26063046,0.010260072,-0.121394224,-0.010851143,-0.109838426,-0.2907619,-0.2168439,0.13507274
Katphala,-0.04080442,-0.30747265,-0.069641046,-0.08007683,0.07489189,-0.11386172,-0.07885865,-0.06840239,-0.03671692,0.08463701,0.43720168,-0.30319515,0.07517404,-0.14117853,-0.105545335,0.012943487,0.06256092,-0.007223272,0.038270406,0.25485986,-0.17128462,0.03850356,0.018948587,-0.21080431,-0.19176655,0.14408647,-0.22161813,-0.15628721,-0.20305292,-0.30164894,0.037565783,0.029101362,-0.1858922,0.09280638,0.10423476,-0.10699466,-0.3614918,0.062673375,-0.014439083,-0.10481905,-0.21078473,-0.05040771,0.004181672,0.05959916,0.2130277,0.082225665,0.07837288,-0.21496299,0.060568478,-0.02214375,-0.09305754,-0.14897497,-0.021684254,-0.0484354,-0.023819748,0.07368462,0.0069723604,-0.1678331,0.017355327,0.27928856,-0.053817537,-0.054150995,0.107819125,0.1542947
Mahakalyanaka Ghritam,-0.1406289,0.06999224,-0.33736977,-0.17405191,0.18191375,0.15993379,0.093560115,0.19789632,-0.17095336,0.08211915,0.2819977,-0.24529311,-0.039480075,0.10360331,-0.17340243,0.09575573,0.19401367,-0.05411262,-0.0185339,0.1399372,0.38663936,0.14094536,0.037901156,-0.06528988,-0.1066332,0.050603554,-0.10658681,-0.04463917,0.14167315,-0.14531727,0.35291696,0.028707495,0.06642155,0.2614145,0.14249079,0.16367444,-0.116916515,0.017791528,0.085014366,-0.0121216085,-0.068953305,-0.009563515,0.32442275,-0.2826333,0.12288081,0.18591115,0.5690476,-0.0034447336,0.16882014,0.09049996,-0.034762498,-0.021157013,0.13218282,-0.16855869,-0.040166106,-0.2377566,0.16218676,-0.07473106,-0.3077368,0.21470116,0.06926809,-0.26587468,-0.124138445,0.006483726
Punarnavasava,-0.116154216,0.025380429,-0.06265161,-0.42184588,0.05569962,0.07868722,0.24794011,-0.040589366,0.0032937701,0.27686268,0.056881953,-0.20622087,-0.118367925,-0.19773054,-0.2111918,0.13011661,-0.47793406,-0.11820157,-0.17944247,-0.022967208,0.35553995,-0.020173896,-0.022447044,0.052910388,0.102639645,-0.0029878274,0.14329027,-0.06679505,-0.027465025,-0.17342599,-0.17947464,-0.06060046,-0.20941651,0.091358475,0.035963718,-0.056744266,-0.47051716,0.048682585,0.042308025,-0.12035086,0.13085738,-0.16210327,-0.24852814,0.08882061,0.0730654,-0.049896672,0.27826723,-0.06353949,0.012453888,0.2207593,0.09943023,-0.20212212,0.013629246,0.09184411,-0.24324171,0.071801215,-0.24298595,-0.47192946,-0.116549425,0.1071863,-0.02907502,-0.26463374,-0.064294845,0.28102538
Ativisha,-0.0968479,-0.03477631,0.104213364,0.08833644,0.074413784,-0.038913257,0.17729503,-0.0073281596,-0.050083894,0.15534157,0.16786352,-0.21672216,-0.006193973,-0.113008946,0.11376161,-0.18802086,0.03522942,-0.19565499,0.071471736,-0.026323378,-0.016204203,-0.0011397518,0.0078052776,0.04115864,-0.11524977,0.21093792,-0.28259248,-0.1049265,0.052076653,-0.049816214,0.23617807,0.38035467,-0.056713566,0.0695405,-0.06916007,0.028893707,-0.09833385,0.02240393,0.070569515,0.15416041,0.087510206,0.15848854,0.063310646,0.043281607,0.15552457,0.22822018,-0.03363435,0.09640656,0.2934329,0.11619952,-0.023490641,-0.12007651,-0.40663543,-0.16895933,0.0424428,0.18843679,-0.005305987,-0.20450395,-0.0030689617,0.24037018,-0.25952628,-0.25529826,0.061658826,0.21279798
Sariva,0.017248819,-0.019801093,-0.5763493,0.059533335,0.19368507,0.14334255,0.18640758,0.26045555,-0.077348314,0.21060689,0.31103554,-0.1804554,-0.2521114,0.01416267,-0.15515904,0.2806383,-0.14489163,-0.16095872,-0.20491916,0.05953179,0.0059433677,-0.05769308,0.025897203,-0.083702035,0.3599265,0.19678514,-0.18822907,-0.19608884,-0.08500709,0.31249282,0.079043366,0.04401387,-0.1628492,0.14934394,-0.093622334,-0.013374351,0.17888033,-0.0038734907,0.13656095,0.082472384,-0.35900897,-0.23753305,0.33581316,0.04483238,0.07069139,-0.0913379,0.24157505,0.11883788,0.0119749075,0.06819691,-0.18605864,-0.27404058,-0.19244677,0.12945294,-0.074456334,-0.28779063,0.27372265,-0.105245754,-0.30771944,0.027807763,-0.04980818,-0.4596073,-0.10369205,-0.0031167106
Lavan Bhaskar Churna,-0.0275819,-0.12078291,0.123640366,-0.096678294,-0.23148817,-0.08295936,0.20511056,-0.09661964,-0.13214503,0.28877804,0.22090858,-0.2338981,0.065028265,0.22129458,-0.037426997,-0.14342794,0.056802493,-0.3883841,-0.09106119,0.046440493,0.043933626,0.019597944,0.116477765,-0.18790184,-0.27867448,0.08204734,0.15911242,-0.14778799,-0.039017584,-0.08507485,0.1887522,0.020101221,-0.19907372,-0.20435072,-0.017219748,0.1317596,0.012198325,-0.04300763,0.15906131,0.17023773,0.07548994,-0.027527077,0.272888,0.040255938,0.41068715,0.054926276,-0.13882346,0.24249144,0.44164628,0.21607432,0.20195432,-0.14542419,-0.064748526,0.059054043,-0.14460637,-0.1979326,0.09859825,-0.19528687,-0.30163875,-0.025048083,-0.12281417,0.14344473,-0.060198933,0.1908415
Aragwadha,0.023214132,-0.048152905,-0.30054557,0.010890345,-0.19964363,-0.08135642,-0.023090452,0.030841505,-0.24898107,0.20354772,0.31097287,-0.62112886,0.021724315,0.105658986,0.011720715,0.09684021,0.12338394,0.17560337,-0.24789602,0.25824553,0.16213386,-0.1695343,0.32055512,0.023748241,-0.019218825,0.2124068,-0.04935775,-0.14037701,-0.057170592,-0.046791755,0.1912073,0.069424726,0.032391302,-0.078067414,-0.15413387,-0.008667386,0.11491859,0.09770372,-0.11440196,-0.16134293,-0.2676743,-0.23549257,0.46117207,-0.119032055,0.26858792,0.0008601888,0.26049787,0.16277039,0.21045858,-0.020692918,-0.06232292,-0.09276937,0.070542306,-0.31035122,-0.13521081,0.054619905,0.114599265,-0.37306798,-0.30579343,0.082734644,-0.28872025,-0.3035895,0.14502163,0.011760058
Kutajarishta,-0.20577459,-0.09275092,-0.16171056,-0.10995199,0.012360844,0.16429737,0.5951762,0.11337018,-0.15387772,0.11823676,0.3408576,-0.01939537,0.0039726608,0.10133968,-0.1291553,0.28787458,-0.14379139,0.17565374,0.019280123,0.046697944,-0.17469873,-0.05980088,0.0029308107,-0.3829042,-0.40554133,0.007819299,-0.08894567,-0.043069027,-0.05246846,0.20100695,0.18819508,0.09802625,-0.033134494,-0.105064325,0.1675845,-0.07905912,-0.06935289,-0.32940638,-0.15293637,0.023005938,0.31781358,0.06189401,-0.03433124,-0.29785165,0.11754709,0.056984976,-0.0064393566,0.08761032,0.25376385,0.057229895,-0.08148445,0.19603539,-0.11157043,0.12597495,0.14490998,0.4950804,0.17654063,-0.19360228,-0.2040782,0.20701487,-0.14077528,-0.0067086206,0.091953866,-0.12197855
Navayasa Loha,-0.25554878,-0.32385662,0.011205398,-0.11686133,-0.037637163,-0.22688818,0.56877446,-0.05500112,-0.22397047,0.28044578,0.03348488,-0.1594403,-0.10132909,0.18231408,0.1757823,0.41564527,-0.11905093,0.036039818,-0.076978736,0.000488449,0.22912383,-0.2722892,0.03315759,-0.42308557,-0.008454009,-0.11951779,-0.15230186,0.07938114,0.002643221,0.20965143,0.035852846,-0.12388492,-0.15921862,-0.2132096,0.22436939,-0.1683105,-0.19487785,-0.25420406,-0.22319448,0.23941088,-0.003053034,-0.30877128,-0.13446616,-0.12968454,0.13899282,0.023431776,0.06720162,-0.1504242,0.17875323,0.03460485,-0.2834067,0.15896794,0.03509304,-0.11610936,0.18819636,0.093730025,0.34420153,-0.045035493,-0.22665077,0.5241988,-0.5021543,-0.10060889,0.08835195,-0.14266373
Ushtra Dugdha,0.022120113,0.22265685,-0.082540296,0.16447644,-0.20208126,0.09345762,0.11325843,0.15864113,-0.11330796,-0.040115573,0.22764279,-0.1081577,-0.26578945,-0.040143542,-0.060605627,-0.15154265,0.021681124,-0.33422792,-0.07187475,0.18560685,-0.038660146,0.3813393,-0.15392205,-0.32986042,-0.11025643,-0.023376212,0.21261236,-0.06880167,0.17370574,-0.29343596,0.11472089,-0.25399986,0.16511953,-0.051114418,-0.2241643,0.15678215,0.042339873,-0.4130796,-0.1964177,0.19603935,-0.10282102,0.17531879,0.0011743673,0.065888666,0.22096618,-0.0137130665,0.017441602,0.027468337,0.30947843,0.2900554,0.15120828,0.027064985,-0.13321489,0.03898925,0.2942696,-0.1419694,0.1713548,-0.16731934,-0.30265376,0.266554,-0.15493137,0.0068721725,0.0016243919,0.30796704
Madhu,-0.26422524,-0.047950856,-0.09972451,0.19966006,0.099425286,0.16248477,0.045579687,0.13830833,-0.08146889,0.2422964,-0.06243197,0.060276795,0.08057203,-0.2754273,0.30554765,-0.15129617,-0.103396155,-0.044649478,0.004065528,0.31276703,-0.16857149,0.049043845,-0.010433712,-0.3065071,-0.09371951,0.0124516385,0.34767798,-0.05311971,-0.4377864,-0.1639789,0.18610632,-0.42297116,-0.13933517,-0.0009133152,-0.023671784,0.3557832,-0.12608224,0.01729178,-0.3698106,-0.020923242,0.0017804974,0.4340737,0.19333722,0.057492748,-0.11450592,0.28683686,0.37318423,0.054803185,0.20858002,-0.0383361,-0.17843786,-0.26540604,-0.07871207,0.46973708,0.30624625,-0.22552031,0.15124883,-0.0955461,-0.28181943,0.33840224,-0.12974876,-0.41000536,0.2525537,0.0873224
Brihati,-0.26287696,-0.03625017,0.101134874,0.089397185,0.22310844,-0.025507733,0.1466117,-0.30722702,0.21774387,-0.014143339,0.3016126,-0.25191042,-0.022179343,-0.10644125,-0.03048942,0.119532,-0.09735909,-0.2787416,0.15978967,0.16716035,0.03749608,0.10803036,-0.11790313,-0.10681114,-0.15173234,0.0007645907,-0.16041854,-0.10531496,0.054503728,-0.09982124,0.10397216,0.045221288,-0.12126178,-0.19077936,0.11615703,-0.112266324,0.035050645,0.16024138,-0.15761226,0.17510639,0.05208399,-0.019038683,-0.023904307,-0.19507258,0.04425885,0.0019158657,0.14061062,-0.19532488,0.24001361,0.01806962,-0.06305866,-0.23948045,0.05302571,-0.047218997,0.04028131,-0.072695166,-0.30517927,-0.18344323,-0.13095175,0.27718535,0.06928475,-0.14644507,-0.05208894,0.24102037
Vidari,0.09285932,0.3299779,-0.13124882,-0.12959342,0.31526116,0.1204786,0.0013669686,0.18442269,0.06623513,0.22556089,0.1909062,-0.23514803,-0.13347319,0.25220993,-0.33640745,0.2563475,-0.08146961,0.023495514,0.1380454,0.11289279,0.17647758,0.0033510388,0.10340477,0.021398278,-0.22178978,0.2003015,0.1623657,0.031778764,-0.016032178,-0.17651002,0.5147261,0.043398615,0.29476857,0.2866071,0.079938106,0.29795703,-0.13466536,0.19622447,0.1488524,0.26881933,-0.16038612,0.012551434,0.50187504,-0.1668018,0.1618074,-0.04471184,0.4930073,0.10816671,0.2110252,0.20521104,-0.08893372,-0.19198559,0.19417483,-0.058973838,0.047018636,0.02289253,0.026922269,-0.15133123,-0.04042336,0.35283905,-0.33142412,-0.38384128,0.09254893,0.02205225
Hingvashtak Churna,-0.20752698,-0.16132763,0.341774,0.0066382834,-0.048115663,-0.11664914,0.10693826,0.112570114,-0.09319594,0.15577562,0.27903894,-0.13355222,-0.03825442,0.21574962,-0.46069032,-0.23743118,0.057224475,-0.39095008,-0.15296185,0.082844645,0.12090318,0.047617912,0.12644109,-0.23680899,-0.10810691,-0.101427145,0.08344871,-0.061413128,0.049078718,0.12611102,0.2910187,0.062258203,-0.39614466,-0.06358677,-0.058959343,0.26451772,-0.004756121,-0.021730172,0.23285119,0.1660647,-0.06488427,0.16437866,-0.24921644,0.14864837,0.23326547,0.15161757,0.024084678,0.15358135,0.34858203,0.17568211,0.27551064,-0.051145192,-0.34179324,-0.081895925,-0.13369022,-0.11918611,0.11364535,0.036556076,-0.35196036,0.15846401,-0.18608214,0.14803839,-0.11551612,0.2306685
Arogyavardhini Vati,0.01605679,0.1820316,-0.042162918,0.1520472,0.21432407,-0.12221622,0.41223884,-0.09012977,-0.044765495,0.15892875,0.2576431,0.00060754525,-0.06429377,-0.09814163,-0.10420725,0.20197208,-0.29101482,0.020420687,-0.1865705,-0.05598112,0.11230936,0.034382656,0.12552613,-0.16432054,-0.022830542,0.042500835,-0.030705014,-0.109256774,-0.057845388,-0.031930592,-0.082858115,0.12365128,0.03463717,-0.08808401,-0.0035262464,-0.078941315,-0.09863586,0.18747701,-0.21748327,-0.06967597,-0.06574809,-0.0486374,-0.19838065,0.10857541,0.15313892,0.039606802,0.024303824,0.23496285,0.025372662,0.3420669,-0.13295735,-0.043124128,-0.17093445,0.010459373,-0.22571523,-0.090845466,0.12864117,-0.34413472,-0.26385012,0.2188598,-0.22126922,-0.22050542,0.08806058,0.15227625
Dashamoola Katutraya Kashayam,0.15780884,-0.30732802,-0.059183992,-0.07864955,0.34810412,-0.035476934,0.03721821,-0.0739911,-0.047300138,-0.08961835,0.22089837,-0.13522351,-0.0640633,-0.10858392,-0.26888815,-0.013594281,0.16691713,-0.3184404,0.10702337,0.42465347,-0.15084285,0.1725656,-0.09607563,-0.3665926,0.00022553842,-0.068141654,0.10002475,0.0122095095,0.02041162,-0.08769463,0.15304498,0.19747579,-0.38428074,-0.08945777,0.2506111,-0.028677488,-0.17047584,-0.023605071,0.12837896,0.024336563,0.046740063,-0.054633714,0.1534692,0.040988967,0.24460003,0.08712618,0.070159376,-0.324337,-0.061077274,-0.12909286,0.032940477,-0.12655526,0.20172453,0.053405974,0.14516976,-0.012554987,-0.05946013,-0.44923273,0.04250521,0.088975735,-0.09498189,-0.10196301,-0.3089069,-0.029606413
Chopchini,-0.065565735,0.19947228,0.1914108,-0.19522707,0.050879057,-0.09579538,0.23491207,0.09768389,-0.10679141,-0.10822089,-0.08685843,-0.22205517,-0.061055023,0.31192887,0.021031521,0.30013272,-0.118695214,-0.3143373,0.1004993,0.06937397,0.20342731,0.118491404,0.048827246,-0.08498506,-0.078765005,-0.0017138263,-0.21605378,-0.048386186,3.2151023e-05,-0.07626016,-0.050379794,-0.056762166,-0.17548952,0.23615316,0.16347648,0.10007874,-0.11873801,0.039222416,0.09837891,0.051609837,-0.10379652,0.15339106,0.11480147,-0.26576996,-0.13114645,0.46625534,0.35991293,-0.08318907,0.18576519,0.078537636,0.008971622,-0.1873095,0.17017241,-0.2334585,0.19659327,-0.043718517,-0.35950753,-0.31804,-0.041579086,0.32639086,0.2666125,-0.3122466,0.07972447,-0.034484465
Methi,-0.27265123,-0.19688001,0.15328564,0.23695742,0.28214154,-0.16454975,0.17055236,0.067596,-0.042080723,0.026078882,0.3962365,-0.19600223,-0.09487937,0.20726304,-0.49856055,-0.100227065,-0.113197975,-0.06555475,-0.12242256,0.1350819,0.07179211,0.08322052,0.09902003,-0.27719146,0.03989758,-0.029045718,-0.017262055,0.0778392,0.18269819,0.07069396,0.3865564,0.066151336,0.006589945,-0.0852611,0.041063193,0.3889543,0.19379272,0.18785529,0.116745,0.29799458,-0.04365249,0.073669754,-0.21122968,0.20348169,-0.0010222235,-0.016836707,0.3445638,-0.04249236,0.16416846,0.12756887,0.20449436,-0.14802745,-0.27271864,-0.30755302,-0.08342234,-0.048346307,-0.14860457,-0.053440742,-0.14912334,0.21066982,-0.09352509,-0.084766544,0.154052,0.14081867
Rasona (Garlic),-0.11421804,0.04587554,-0.31396937,0.101687364,0.22177385,-0.12852389,0.1935908,0.01894358,-0.11354293,0.030281512,0.016590927,0.14745073,0.07312177,-0.14055938,-0.23355536,0.07473911,-0.08882474,-0.2514995,0.08641708,0.10984028,0.14934532,0.26484478,-0.08744187,-0.055786107,-0.29874685,-0.045690533,-0.01951364,-0.07859102,0.16200478,-0.21217121,0.13817249,-0.0062149223,0.24171595,-0.12732807,-0.27402934,0.13121758,-0.018091448,-0.1659983,-0.25352234,0.13615017,0.05623125,0.032325227,0.20287444,0.025271233,0.060107365,0.17093685,0.13303903,-0.025289055,0.17644154,0.16673014,-0.086844556,0.009231466,-0.26843208,-0.07606545,0.07040238,-0.026802232,-0.009508326,-0.21465127,-0.17788567,0.5065604,0.0039962362,-0.16119047,0.08290267,-0.16813909
Gokshura,-0.4063531,0.13674186,-0.3335008,-0.48188064,-0.044890985,0.004397483,0.008483568,0.32835272,0.1208275,0.036320303,0.078590535,-0.24082175,-0.08510296,-0.022776343,-0.21346244,0.27547786,-0.14569376,-0.2263606,-0.073862806,0.11946754,0.53032583,-0.1091715,0.16934456,0.17590123,-0.021068184,0.051790137,0.107257806,-0.18764885,0.11961673,-0.10495186,0.2833013,-0.10495724,-0.01734465,0.16622871,-0.033551298,0.22735469,-0.09692088,-0.23314309,0.06241992,0.023681607,0.03983754,-0.1822483,0.2364821,-0.41955554,-0.050283127,0.093459964,0.4747392,0.0012758824,0.14744298,0.15110444,0.026373932,-0.2551248,0.18503839,-0.08218763,0.07201174,-0.094752036,-0.30155867,-0.30644342,-0.32871118,0.22173956,-0.060921364,-0.38471025,-0.1802094,0.17096278
Karanja,-0.027927913,0.07961443,0.21567692,0.08737184,-0.073150866,0.05395743,0.12136048,0.26406,-0.025001368,-0.16323476,0.075981565,0.11675134,-0.15446895,0.0630999,0.23407406,0.13134544,-0.16424455,-0.06145007,-0.35100034,0.037258517,0.009915425,0.2164885,-0.051925898,-0.34914246,0.006683737,-0.05000603,-0.013725722,0.12126992,0.23965277,-0.13920316,-0.046192564,-0.14038679,-0.0730641,0.23419526,0.1613516,-0.37407655,0.42442495,0.07385259,-0.10970064,-0.039707083,-0.21729915,0.18554793,0.12500986,0.018320918,0.2500782,-0.1340762,0.23953058,-0.3554384,0.20237392,0.24386923,0.012352801,-0.089496434,-0.23929562,-0.07749644,-0.004781722,-0.09742169,-0.10333816,-0.42226258,-0.18692142,0.20032015,-0.42770457,-0.4406136,0.1987568,-0.084487595
Parnayavani,-0.12437686,-0.22624108,0.1812583,-0.029435666,0.2287342,-0.054799043,0.0890867,-0.13003115,0.062604114,-0.023256486,0.2556384,-0.028031023,0.14880998,-0.00611977,-0.0403439,-0.07797269,0.122486226,-0.24889664,-0.014439422,0.12115697,0.024657069,0.12971143,0.026703153,-0.20612712,-0.1787751,0.1761044,-0.11707945,-0.1211558,-0.2836527,-0.029284108,0.20383137,0.24869621,-0.15861873,-0.041777488,0.07290761,-0.07427064,-0.20305465,0.13396262,0.1404721,0.21568225,-0.03118125,-0.1257503,0.10883178,0.0858278,0.31031758,0.0630482,0.046318214,-0.041037578,0.28391853,0.10213741,0.030495688,-0.15212539,-0.09044415,0.062387373,-0.26363587,-0.033246364,-0.020290134,-0.17204553,-0.038059097,0.3336413,0.028000709,0.0034346092,-0.11745952,0.2563037
Kasturi,0.1318215,-0.06837888,0.22601466,-0.20379311,0.12291142,-0.2604422,0.16263369,0.2635509,-0.39506754,0.053237982,0.15652435,-0.043148722,0.125821,0.2997772,-0.34164694,-0.070278324,0.18892781,-0.2828185,0.0018828791,0.035076212,0.041008636,0.08491185,-0.19095322,-0.12281485,-0.15466282,0.08065349,0.14488024,0.15207687,0.05715681,0.031873822,0.055248346,0.21854722,-0.11097434,0.2526691,0.17321491,-0.16013971,-0.28435996,-0.015044879,0.21914344,0.13161053,0.0057751616,-0.2574324,0.19838364,-0.09319747,-0.08304248,0.4286065,0.3549576,-0.23704813,0.09505277,-0.06646499,-0.06858974,-0.29753032,0.1889512,0.06030448,0.30643246,-0.17397092,-0.119031586,-0.45718977,-0.10041922,0.020584427,-0.26081964,-0.14739169,-0.124308325,-0.08911021
Vriddhadaru,-0.11809935,0.116365485,-0.20349808,-0.018104076,0.38490576,-0.11771951,0.17289647,0.058141902,-0.28443962,0.052827593,0.379732,-0.2290111,-0.009984823,0.20913139,-0.123757884,0.07516875,0.112607375,-0.11467047,-0.038047962,0.1652202,0.3352602,0.110977285,-0.055887997,0.039760843,-0.08460507,0.020807078,-0.13487776,-0.03696889,0.04002507,-0.18175627,0.23851474,-0.08630764,0.15779407,0.1494147,-0.035074968,0.15847884,-0.15031646,0.10166099,0.031463638,-0.047231864,0.073630586,0.07041657,0.33742583,-0.36472303,0.060233362,0.26069298,0.51528883,-0.10945252,-0.04210129,0.14557908,-0.09044172,-0.06976853,0.1205659,-0.15708892,-0.07586134,-0.28670037,0.005964337,-0.13644964,-0.20407942,0.30327648,0.072063945,-0.2238712,-0.22318049,0.022563027
Twak (Cinnamon),-0.23148918,-0.16448691,-0.17697056,0.15715845,0.27491555,-0.010452206,-0.07559598,0.017451579,0.026814822,-0.004855406,0.17878465,0.024459645,-0.024907017,-0.06372455,-0.16405939,-0.042154506,-0.024623673,-0.2899603,-0.15015833,0.41704792,-0.14490196,0.24239519,-0.043500915,-0.11039991,-0.26483902,-0.058463592,-0.081744544,-0.07563663,-0.098184414,-0.18207577,0.07021045,0.14427708,0.14444494,-0.090879105,0.008141923,0.12334329,-0.13938121,0.055089552,-0.108431876,0.2462597,-0.095385775,-0.15587749,0.15212037,-0.0053876354,0.15125136,-0.08239351,0.17463651,-0.13301498,0.20669593,0.117656775,-0.016712885,-0.075127535,-0.14802009,0.05370616,0.038385008,-0.16769625,0.028301805,-0.2636619,-0.19650085,0.44629583,0.16342059,0.035160746,0.12456085,0.15526415
Japa,0.19459932,0.11870379,-0.13380262,0.0089988895,0.08752605,0.3402079,0.5838206,0.2296217,-0.15076853,-0.4100971,0.22658998,-0.28808907,-0.06769347,-0.16448419,-0.15248702,0.27220047,-0.31728375,-0.10350025,0.09407575,0.09897323,-0.04940669,0.2505148,-0.17729339,0.2777608,0.00178244,0.14554489,0.09243524,-0.21508165,-0.12274958,0.05268849,-0.08673675,0.12383907,-0.04637529,-0.086307816,0.18198219,-0.14279643,0.102689,0.041513797,0.02476757,0.17178492,0.12483686,-0.10615084,-0.1281783,-0.08383536,-0.06979081,0.2277086,0.3642668,0.13915546,0.30924305,-0.30926317,-0.2810032,-0.15030575,-0.24927053,0.20924385,0.041325852,-0.30836305,0.20627438,0.0024931594,-0.2310928,-0.037710782,-0.40218312,-0.26442134,0.10986622,0.21522813
Tila,0.11916449,-0.056649413,-0.2461274,-0.07885961,0.34087032,0.2823418,0.2575823,0.18461464,-0.09816978,-0.127985,0.31874824,-0.3060488,-0.04825989,0.08177486,-0.16586046,0.20607775,0.035080794,-0.10565415,0.23337656,0.00848019,0.3703368,0.2101096,0.25835085,-0.067374885,0.032847077,0.3089354,0.11408991,0.059053566,-0.24895045,-0.16425328,-0.06325789,-0.043964434,0.32279202,0.12472211,0.4234515,0.24259639,-0.05916432,0.08803178,0.20296901,0.16445532,0.04839235,0.041541006,0.053565912,-0.15181074,0.20726545,0.1305638,0.55896604,0.26113775,0.13715298,-0.03573838,-0.026444178,-0.251655,-0.058761273,-0.21659638,0.06329201,-0.26028404,-0.051173154,-0.21194583,-0.23153813,0.034594513,-0.2394598,-0.08065623,0.30790043,0.28372806
Rohitaka,0.06145221,0.0017292039,-0.098542005,0.20275918,0.21685931,0.2508532,0.5287384,0.17098853,0.018977186,0.086476974,0.062809154,-0.13112053,-0.10130521,-0.15325136,-0.04537686,0.041802075,-0.29304826,-0.08395046,-0.094211854,0.0020546808,-0.027982038,-0.009997145,0.048731137,-0.17177215,-0.009688715,0.22690256,-0.07557116,-0.1793945,-0.11110097,0.06894496,0.33573312,0.31305167,-0.28136078,-0.06393809,-0.06064295,-0.092426635,0.14283146,0.15373436,0.087261274,0.08218845,0.20096746,0.055642627,0.04142093,-0.05889011,-0.057678476,0.22916305,-0.02449458,0.057937976,0.438173,0.1873766,-0.01075653,-0.14806175,-0.3453833,0.1693046,-0.23056538,-0.13224496,0.12336958,-0.04133957,-0.02085296,0.105228566,-0.008206189,-0.1313061,-0.08658859,0.19481646
Utpala,-0.45748845,0.20697245,-0.19019066,-0.082597606,0.14899637,-0.1651709,0.36702767,0.08485101,0.07293243,-0.07112882,0.2819163,-0.3135128,0.024094021,0.10902415,-0.4862834,0.1543007,0.0789031,-0.07276844,-0.107888296,0.15225989,0.0053032646,0.28336835,-0.04710372,-0.03834033,-0.17570777,0.17810173,0.29606032,-0.089126386,-0.24846494,-0.014881937,0.21411023,0.15365066,0.17529404,0.005374567,-0.2921649,-0.19794978,0.10643725,-0.15231676,0.049779564,-0.20846839,-0.067249,-0.040183548,0.32444263,-0.14362451,-0.0074475054,0.18659367,0.431232,0.059683807,0.114723764,-0.2299363,-0.32165828,-0.016684745,-0.06954082,0.104624726,0.22325046,-0.18667185,0.04951985,-0.13616028,0.1277912,0.19676428,-0.2266376,-0.2023209,-0.16384633,0.06298856
Bilva Majja,-0.085391134,0.038084835,0.090544045,0.059353583,0.20709786,0.20146766,0.37297717,-0.06750934,-0.07544878,0.14688702,0.13022596,-0.052062307,0.1417922,0.01760633,-0.1294388,-0.05778284,-0.09535039,-0.06419744,0.0840262,0.017273922,0.16983455,-0.021777298,0.03218726,-0.25947493,-0.13098486,0.15021867,-0.10555561,-0.1697988,-0.1555986,0.049951266,0.2071453,0.053018205,-0.078716956,-0.057171844,0.038525283,-0.0009098158,0.030288797,-0.0038789185,0.12574738,-0.08602359,0.3431961,0.17760229,0.038765956,0.017870389,0.06752932,0.10605756,-0.045316353,0.101876326,0.42026013,0.027065644,0.0044616302,-0.1241744,-0.33223397,0.07669948,-0.01704038,0.2574665,0.13658957,-0.15148294,-0.18192095,0.1837995,-0.03155711,-0.10037023,0.031714693,0.073305055
Dadimashtaka Churna,-0.16441949,-0.13042286,0.049934745,-0.047392882,0.37150362,0.0851577,0.20030464,-0.05725597,0.13752583,0.012487016,0.16870686,-0.1291841,0.1393868,0.13175517,-0.17584592,-0.11321187,0.012816739,0.024994923,0.024544794,-0.08367917,0.3231619,0.09454575,0.19829664,-0.2335028,-0.023371669,0.31657317,0.028449146,-0.1551684,-0.284506,0.2514357,0.13356021,0.103941806,0.03495948,-0.08278283,-0.16096605,0.0678551,-0.00033154312,-0.08812601,-0.03577548,0.05023248,0.2943115,0.27633885,0.17137387,-0.2519232,0.25066596,-0.07613426,0.042871784,0.099132776,0.44005463,0.13824834,0.08045313,-0.15691863,-0.25778267,0.20398119,0.113582425,0.28563094,0.3148596,-0.14758421,-0.2002777,0.09076415,-0.021717757,-0.17277716,-0.11393897,0.13732293
Vamsha,0.07471027,0.07972627,-0.25228626,0.06379661,0.30915824,0.010762173,0.14847295,0.15150708,0.15775268,-0.17323828,0.3120054,-0.34345067,-0.03708041,0.070486106,-0.08118286,0.027982738,0.1561461,0.0679193,0.15008652,0.33145767,0.05248838,0.054698933,0.023265213,-0.21971251,-0.003686757,0.2419823,-0.04609378,-0.01262394,-0.2673528,-0.32308596,0.20956437,0.074464284,0.04392025,-0.05953925,0.3519953,-0.047875874,-0.14711946,0.12193563,-0.11243152,0.18205568,0.108954966,0.01710679,0.04642977,-0.3902298,-0.008582175,0.048811585,0.2006103,-0.05169126,0.27787927,0.17459571,-0.06106876,-0.33682352,0.22607478,-0.049272552,0.07336216,-0.30669263,0.05494223,-0.24161576,-0.05380696,0.30677584,0.058862783,-0.20810059,0.27895895,0.17562558
Guggulu,-0.337616,0.012352434,0.17736179,-0.05913196,-0.067641675,0.20758142,0.046423454,0.16569746,-0.05312311,0.10018051,-0.21707073,0.024568893,-0.26299748,-0.1681739,0.04125335,-0.0006936092,-0.21631387,-0.27052602,-0.12067544,0.1450985,0.27680746,0.21968043,-0.27946424,0.0050666905,-0.09597216,-0.304621,-0.092244215,0.18721797,-0.025786417,-0.23281881,-0.10356734,-0.015273644,-0.019655941,0.18440618,-0.008673733,-0.18007126,0.17593427,0.08932629,-0.21151169,-0.030193143,0.08143816,0.07850387,0.24028948,-0.107098036,0.19220425,-0.0057906075,0.32955167,-0.2612377,0.40957326,0.0898463,0.09526867,-0.17983577,-0.24220893,0.055089317,0.21761385,-0.14536561,-0.2544187,-0.427547,-0.28408703,0.4212757,-0.018460557,-0.23313653,0.37187117,-0.20064004
Kutaj,0.06990885,0.23651187,0.10394769,-0.1099866,0.06690355,0.24584144,0.25711057,0.15078132,-0.23392236,-0.24348055,0.0126642175,-0.16802165,-0.013654403,0.19364928,0.036203157,0.2578708,-0.1452834,0.067929335,-0.15255795,0.12231074,-0.06266371,0.22113082,0.08331821,-0.3312714,0.03852504,0.1974307,-0.0721901,-0.19301154,0.05725735,-0.08502865,0.07518234,-0.05784997,-0.031371456,0.11033394,-0.01758317,-0.09074446,0.16754757,-0.37055674,0.093034424,-0.30281934,-0.2091425,0.3449981,-0.06412124,-0.00968175,-0.040166605,-0.008252564,0.09393702,-0.04029221,0.3090179,-0.0011426156,-0.123447254,-0.12440832,0.03143606,-0.121464215,0.14907071,0.4378888,0.14085509,-0.384701,0.024758244,0.21769333,0.18420689,-0.38220468,-0.046369664,-0.012676079
Shrigataka,0.058100805,-0.011945924,-0.06488843,0.042304587,-0.03033286,0.24658698,0.3309813,0.3278943,0.031295646,0.09982094,0.2705787,-0.3262933,0.13541144,0.3311283,-0.5089499,0.31863457,0.10183274,0.0044253008,0.08137786,0.4346391,0.26644424,0.0639481,0.16779499,-0.18772522,0.019859606,0.3472449,0.053016827,-0.15251148,-0.5230312,0.07485975,0.17308004,-0.01847796,0.04356967,0.1482218,0.22000869,-0.037826587,-0.2692723,-0.21748045,0.11935681,-0.24700211,0.060562808,0.2451374,0.31158453,-0.3943687,-0.18377377,-0.17048001,0.39198595,0.039956693,-0.009816124,0.3113076,0.057633143,0.019665344,0.12532291,0.057549343,0.009730245,0.084520675,0.05112646,0.03680495,-0.34840804,0.27780128,-0.13096383,-0.18912606,0.08658901,0.26578954
Eranda Taila,-0.06441867,0.004079837,-0.20043667,-0.05623541,-0.014394835,-0.0005776179,0.29063028,-0.04176135,-0.1590492,0.025050541,0.027865993,-0.36751607,0.05969433,0.31628254,0.07750375,-0.0074285795,-0.029871084,-0.1673689,-0.2638073,0.44508,0.029915968,0.020826401,0.26528278,0.037465762,0.042707205,0.07087064,0.1602907,-0.16267852,-0.1916933,0.044054165,0.102298476,0.04480315,-0.14354034,-0.21425773,0.036144078,0.42571524,0.18073896,0.11095178,0.10271366,0.016658405,-0.40145326,0.05543117,0.43667796,-0.14456363,0.5095802,-0.044975042,0.38479185,-0.039440345,0.004662284,-0.056314703,0.006896923,0.05548336,0.10222483,-0.19620289,0.12482674,0.09240397,-0.088827804,-0.46417093,-0.19339344,0.041744947,0.13977134,-0.27966437,-0.07993787,-0.25335437
Shyonaka,-0.1465708,0.15811642,0.083490804,0.009180382,0.12406398,0.16229776,0.2300739,-0.2732481,0.03490755,0.06363737,0.10621658,-0.16448678,0.0038862221,0.04151584,-0.27906948,0.20178923,-0.22175196,-0.07721022,0.17003345,0.0006578288,0.16928028,0.09350947,-0.1212115,-0.07256666,-0.080925584,0.036455564,-0.12463881,-0.17371485,-0.041159935,-0.031895675,0.07522709,-0.11007742,-0.12600933,-0.003686349,0.03899149,-0.056131724,0.03840489,-0.12471248,-0.08028236,-0.14869243,0.32248205,0.17688726,0.06503444,-0.11399346,-0.02754031,0.04707821,0.25898167,0.016359778,0.3600577,0.04497904,0.0260623,-0.12594733,-0.23372717,0.08707354,0.17128505,0.4063812,-0.14789097,-0.23290385,-0.14171265,0.113932915,0.040675454,-0.18784893,-0.015017044,0.092925854
Amra,-0.027394315,0.010112585,-0.25695118,0.10928598,0.11664628,0.26895493,0.15282889,0.27131444,0.017682651,-0.012053599,0.3084696,-0.2691716,-0.05123186,0.34394786,-0.3956476,0.12587047,0.023745252,0.11825522,0.09311325,0.12145143,0.28055423,0.078509316,0.13800102,-0.1918547,0.10676357,0.28409985,0.041043654,-0.06019153,-0.2447164,-0.1467537,0.2533809,-0.080420196,0.1560217,0.120522626,0.20862846,0.11103356,-0.07246616,-0.081250116,0.15875761,-0.09016283,0.11022857,0.102380246,0.22742401,-0.28636628,-0.034197453,-0.027059056,0.33631977,0.12630889,0.22335227,0.11337468,0.083281316,-0.39124417,0.05945766,-0.11966864,0.2520432,0.13942829,0.145915,-0.25070843,-0.35414797,0.092537396,-0.00728731,-0.23756453,0.0691763,-0.01066011
Trivrit,0.042341266,-0.13499507,-0.044287335,-0.037142936,-0.28632146,-0.20131977,0.015837135,-0.07272081,-0.33325464,0.20076965,0.2566955,-0.44097558,0.21123776,0.013818258,0.058891993,-0.06921752,0.006784048,-0.10110705,-0.039477743,0.09192103,-0.037912022,-0.068477064,0.033808347,0.007206662,-0.17141303,0.2702463,-0.12829801,0.021409236,-0.018878011,-0.20884106,0.12824799,0.04637187,-0.121893175,-0.10071307,-0.068325326,0.045222897,-0.17270385,0.07064205,-0.19779798,-0.09399274,-0.05267913,-0.065250196,0.29264602,0.08572937,0.22053851,0.10855422,0.072610095,-0.032985326,0.17930457,0.04245828,-0.01737073,-0.14968476,-0.008080478,-0.10947348,0.023198223,0.1236482,-0.12047835,-0.24007651,-0.18736704,0.07540226,-0.18668026,-0.3781224,0.0731062,-0.087910086
Shankha Vati,0.06670375,0.02793865,0.29641464,-0.33524957,-0.050812643,-0.1740976,0.19424713,0.0040673614,0.033569966,0.005402646,0.07355581,-0.28276876,-0.13181193,0.14176238,-0.104038194,-0.060656648,0.093360044,-0.32647458,-0.116617374,-0.19998693,-0.043060176,0.35551304,0.2774092,-0.28740084,-0.26548302,0.008765842,0.033118848,-0.3210446,-0.21561001,0.25807023,0.066016875,0.13632616,-0.17897439,-0.019267892,-0.07889327,0.2920907,-0.14128558,-0.17561123,0.17329855,0.20229013,-0.011985428,0.3648377,0.054995835,0.15440446,0.18512334,0.15146644,0.1442207,0.16432276,0.3508229,0.23986484,0.07502823,-0.09792818,-0.08572645,0.058118206,-0.11884498,-0.03578277,0.4080729,-0.25236192,-0.1352865,0.07642802,0.19285883,0.09071709,-0.11959348,-0.009493375
Lavanga,-0.13013245,0.029115375,0.01372035,-0.16678044,0.14798576,-0.056572925,0.15890522,-0.06565952,-0.054896038,-0.13471009,0.19558847,-0.07126373,-0.10496382,0.2042203,-0.09538061,0.10132444,-0.037143737,-0.14074317,-0.08371744,0.24269593,-0.3613327,0.23819594,-0.0028197428,-0.10285637,-0.30576247,0.22929704,-0.13010275,-0.22246915,-0.2371337,-0.016026016,0.10835078,0.18421891,-0.21623603,-0.13712797,0.06505145,-0.002818501,-0.19127752,-0.047585513,0.0978077,0.2311745,-0.26771513,-0.010206493,0.049545832,0.04309712,0.21025243,-0.034652043,0.0712748,-0.21114436,0.23880209,0.047175568,-0.15539427,-0.027548958,0.13594541,-0.1546957,-0.16701576,-0.03867124,0.12934235,-0.35844907,0.08552032,0.36193994,0.34347215,-0.016087499,-0.09167064,-0.030150358
Mahanimba,0.23037045,0.100260414,-0.23876551,0.13298602,0.087802894,0.22226799,0.31465426,0.2558677,-0.12432545,-0.092283934,0.20097047,-0.2539108,-0.11410411,-0.11900134,0.13567187,0.34175318,-0.22369117,0.062414356,-0.22889291,0.00064254436,-0.137072,0.16712312,-0.012256463,-0.39024955,0.08899183,0.18785119,-0.021826603,-0.18466078,0.30922803,-0.05793654,0.1659421,-0.01060088,-0.019855483,0.04731141,-0.07003215,-0.26175082,0.28429645,-0.1122439,-0.11708079,0.045763046,-0.16422674,-0.019492943,0.041544028,0.10404129,-0.031002104,-0.009365343,0.15566835,-0.15781043,0.14525346,0.15575637,-0.0790529,-0.26005775,-0.16791111,0.031324267,-0.062847726,-0.04183017,0.12657727,0.008877532,-0.11452917,0.06812984,-0.20785494,-0.32050237,-0.18115932,0.20567273
Tumburu,-0.041061927,0.12067727,0.17196743,-0.12666157,0.01907851,-0.0011022509,0.15279584,0.06642132,-0.21961683,-0.13631357,0.28985453,0.05074578,-0.13822334,0.19062452,0.111554965,0.10666567,-0.03691816,-0.15841666,-0.10139735,-0.019793624,-0.16078755,0.21728902,-0.01322684,-0.16903472,-0.12774166,0.17862487,0.026622657,-0.1301132,0.10825391,-0.05192463,0.02651978,-0.011895435,-0.084932856,-0.029025039,-0.18415381,0.1566069,0.011073987,-0.18243037,0.15060045,0.07185914,-0.43015063,0.23271452,-0.006656449,0.15358767,0.2783017,0.06480467,0.2001515,-0.19014432,0.17612652,0.19100262,-0.048183218,-0.12774503,-0.05965521,-0.19192187,0.0414967,0.17085356,-0.077837124,-0.31123248,-0.022734089,0.25341117,0.1608939,-0.16688809,-0.21064198,0.04311022
Yavani,-0.1430138,-0.13710792,0.23664474,0.2502378,0.1575699,-0.11934177,0.29706594,0.053348746,-0.17274167,0.019836325,0.14075841,-0.0860403,0.13429824,0.026323041,-0.31466302,-0.16895741,-0.07732763,-0.27526355,-0.1228256,0.119682126,0.20211613,-0.024325205,0.09640334,-0.19915156,0.06289031,0.03950084,-0.14441022,0.0052947635,0.091523506,0.20593172,0.42762637,0.21260345,-0.24190392,-0.01572181,-0.054131866,0.27879322,0.22605242,0.08144461,0.089429714,0.08430584,0.0025414128,0.21635698,-0.18707287,0.025057906,0.026723161,0.19199353,0.08087664,0.009087722,0.268982,0.08598585,0.19523259,-0.08854601,-0.4735461,-0.16213197,-0.17263941,-0.025918659,-0.06029721,-0.002686362,-0.096024044,0.28933662,-0.17754647,-0.14185035,0.076629296,0.12830707
Mahamanjishthadi,0.061969217,0.07489204,-0.39295217,0.006430914,0.27085376,0.03170842,0.19817819,0.12775818,-0.17074795,0.30685267,0.25306228,-0.13596374,-0.0886834,-0.07829281,-0.047005225,0.37505355,-0.2091459,-0.2238176,-0.09387435,-0.07528771,-0.16543554,-0.08712905,-0.030820252,-0.23700754,0.21492621,0.12816189,-0.23496276,-0.28385675,-0.030174483,0.18511085,0.008666471,0.00607876,-0.19216868,0.14553162,0.020378662,-0.24889776,0.17516747,-0.07900517,-0.03561335,-0.028412974,-0.20255499,-0.04759071,0.039353285,0.0702748,-0.12918615,-0.018393915,0.09262462,0.11189095,0.076503195,0.14507106,-0.20694956,-0.3630148,-0.332116,0.2394714,-0.043632906,-0.23907249,0.24744448,-0.12652023,-0.14363854,0.036895636,0.030162197,-0.35330796,0.0834447,-0.01926293
Kamala,-0.20765565,0.18937193,-0.15060903,-0.17453523,0.15522143,0.1578051,0.20011751,0.07726543,-0.046833757,0.07605415,0.47435373,-0.12101525,-0.04255443,0.37975788,-0.49560022,0.03524761,0.02545803,-0.015303199,-0.033592638,0.10494657,-0.12502246,-0.063409284,-0.18133731,-0.01684801,0.08694367,0.20524888,0.032601062,-0.13967523,-0.21487617,0.35778636,0.048686437,-0.10838854,-0.048062377,0.15248299,-0.055026133,-0.01384085,0.053331677,-0.17258729,0.19007057,-0.23474807,-0.17225277,-0.09027486,0.26709342,-0.1776937,-0.06541574,-0.08042829,0.14031492,0.23916592,0.3203193,-0.14155081,-0.2615705,-0.31718418,-0.24714383,0.39314413,0.32240632,0.03292219,0.32149935,-0.39941332,-0.19393827,-0.0017267829,0.02283838,-0.33783522,0.012401056,-0.031052027
